<?xml version="1.0"?>
<MethodSetup Method="MLP::MLPBNN">
  <GeneralInfo>
    <Info name="TMVA Release" value="4.2.1 [262657]"/>
    <Info name="ROOT Release" value="6.24/02 [399362]"/>
    <Info name="Creator" value="sofiastrazzi"/>
    <Info name="Date" value="Tue Sep  7 19:19:01 2021"/>
    <Info name="Host" value="Darwin HMBRW-A-001-M1-005.local 20.5.0 Darwin Kernel Version 20.5.0: Sat May 8 05:10:31 PDT 2021; root:xnu-7195.121.3~9/RELEASE_ARM64_T8101 arm64"/>
    <Info name="Dir" value="/Users/sofiastrazzi/Documents/SOFT_AND_COMP/ESAME/Software_and_Computing_Exam"/>
    <Info name="Training events" value="466027"/>
    <Info name="TrainingTime" value="3.73783945e+02"/>
    <Info name="AnalysisType" value="Classification"/>
  </GeneralInfo>
  <Options>
    <Option name="NCycles" modified="Yes">60</Option>
    <Option name="HiddenLayers" modified="Yes">N+5</Option>
    <Option name="NeuronType" modified="Yes">tanh</Option>
    <Option name="RandomSeed" modified="No">1</Option>
    <Option name="EstimatorType" modified="No">CE</Option>
    <Option name="NeuronInputType" modified="No">sum</Option>
    <Option name="V" modified="Yes">False</Option>
    <Option name="VerbosityLevel" modified="No">Default</Option>
    <Option name="VarTransform" modified="Yes">N</Option>
    <Option name="H" modified="Yes">True</Option>
    <Option name="CreateMVAPdfs" modified="No">False</Option>
    <Option name="IgnoreNegWeightsInTraining" modified="No">False</Option>
    <Option name="TrainingMethod" modified="Yes">BFGS</Option>
    <Option name="LearningRate" modified="No">2.000000e-02</Option>
    <Option name="DecayRate" modified="No">1.000000e-02</Option>
    <Option name="TestRate" modified="Yes">5</Option>
    <Option name="EpochMonitoring" modified="No">False</Option>
    <Option name="Sampling" modified="No">1.000000e+00</Option>
    <Option name="SamplingEpoch" modified="No">1.000000e+00</Option>
    <Option name="SamplingImportance" modified="No">1.000000e+00</Option>
    <Option name="SamplingTraining" modified="No">True</Option>
    <Option name="SamplingTesting" modified="No">False</Option>
    <Option name="ResetStep" modified="No">50</Option>
    <Option name="Tau" modified="No">3.000000e+00</Option>
    <Option name="BPMode" modified="No">sequential</Option>
    <Option name="BatchSize" modified="No">-1</Option>
    <Option name="ConvergenceImprove" modified="No">1.000000e-30</Option>
    <Option name="ConvergenceTests" modified="No">-1</Option>
    <Option name="UseRegulator" modified="Yes">True</Option>
    <Option name="UpdateLimit" modified="No">10000</Option>
    <Option name="CalculateErrors" modified="No">False</Option>
    <Option name="WeightRange" modified="No">1.000000e+00</Option>
  </Options>
  <Variables NVar="7">
    <Variable VarIndex="0" Expression="EventNumber" Label="EventNumber" Title="EventNumber" Unit="" Internal="EventNumber" Type="F" Min="0.00000000e+00" Max="6.24000000e+02"/>
    <Variable VarIndex="1" Expression="MET" Label="MET" Title="MET" Unit="" Internal="MET" Type="F" Min="4.62389933e-14" Max="7.45451172e+02"/>
    <Variable VarIndex="2" Expression="jet_pT" Label="jet_pT" Title="jet_pT" Unit="" Internal="jet_pT" Type="F" Min="-2.52659321e+00" Max="1.79388196e+03"/>
    <Variable VarIndex="3" Expression="jet_eta" Label="jet_eta" Title="jet_eta" Unit="" Internal="jet_eta" Type="F" Min="-5.95245171e+00" Max="6.01675987e+00"/>
    <Variable VarIndex="4" Expression="jet_phi" Label="jet_phi" Title="jet_phi" Unit="" Internal="jet_phi" Type="F" Min="-3.14159131e+00" Max="3.14158869e+00"/>
    <Variable VarIndex="5" Expression="jet_m" Label="jet_m" Title="jet_m" Unit="" Internal="jet_m" Type="F" Min="-8.35758328e-05" Max="2.31484833e+02"/>
    <Variable VarIndex="6" Expression="jet_isB" Label="jet_isB" Title="jet_isB" Unit="" Internal="jet_isB" Type="F" Min="0.00000000e+00" Max="1.00000000e+00"/>
  </Variables>
  <Spectators NSpec="0"/>
  <Classes NClass="2">
    <Class Name="Signal" Index="0"/>
    <Class Name="Background" Index="1"/>
  </Classes>
  <Transformations NTransformations="1">
    <Transform Name="Normalize">
      <Selection>
        <Input NInputs="7">
          <Input Type="Variable" Label="EventNumber" Expression="EventNumber"/>
          <Input Type="Variable" Label="MET" Expression="MET"/>
          <Input Type="Variable" Label="jet_pT" Expression="jet_pT"/>
          <Input Type="Variable" Label="jet_eta" Expression="jet_eta"/>
          <Input Type="Variable" Label="jet_phi" Expression="jet_phi"/>
          <Input Type="Variable" Label="jet_m" Expression="jet_m"/>
          <Input Type="Variable" Label="jet_isB" Expression="jet_isB"/>
        </Input>
        <Output NOutputs="7">
          <Output Type="Variable" Label="EventNumber" Expression="EventNumber"/>
          <Output Type="Variable" Label="MET" Expression="MET"/>
          <Output Type="Variable" Label="jet_pT" Expression="jet_pT"/>
          <Output Type="Variable" Label="jet_eta" Expression="jet_eta"/>
          <Output Type="Variable" Label="jet_phi" Expression="jet_phi"/>
          <Output Type="Variable" Label="jet_m" Expression="jet_m"/>
          <Output Type="Variable" Label="jet_isB" Expression="jet_isB"/>
        </Output>
      </Selection>
      <Class ClassIndex="0">
        <Ranges>
          <Range Index="0" Min="0.0000000000000000e+00" Max="6.2400000000000000e+02"/>
          <Range Index="1" Min="5.8615769573180931e-13" Max="7.4545117187500000e+02"/>
          <Range Index="2" Min="-1.3515931367874146e+00" Max="1.7938819580078125e+03"/>
          <Range Index="3" Min="-5.8071694374084473e+00" Max="6.0167598724365234e+00"/>
          <Range Index="4" Min="-3.1415829658508301e+00" Max="3.1415886878967285e+00"/>
          <Range Index="5" Min="1.9073486328125000e-06" Max="1.9014921569824219e+02"/>
          <Range Index="6" Min="0.0000000000000000e+00" Max="1.0000000000000000e+00"/>
        </Ranges>
      </Class>
      <Class ClassIndex="1">
        <Ranges>
          <Range Index="0" Min="0.0000000000000000e+00" Max="1.0400000000000000e+02"/>
          <Range Index="1" Min="4.6238993265789591e-14" Max="6.4164947509765625e+02"/>
          <Range Index="2" Min="-2.5265932083129883e+00" Max="9.6675189208984375e+02"/>
          <Range Index="3" Min="-5.9524517059326172e+00" Max="5.9450912475585938e+00"/>
          <Range Index="4" Min="-3.1415913105010986e+00" Max="3.1415746212005615e+00"/>
          <Range Index="5" Min="-8.3575832832138985e-05" Max="2.3148483276367188e+02"/>
          <Range Index="6" Min="0.0000000000000000e+00" Max="1.0000000000000000e+00"/>
        </Ranges>
      </Class>
      <Class ClassIndex="2">
        <Ranges>
          <Range Index="0" Min="0.0000000000000000e+00" Max="6.2400000000000000e+02"/>
          <Range Index="1" Min="4.6238993265789591e-14" Max="7.4545117187500000e+02"/>
          <Range Index="2" Min="-2.5265932083129883e+00" Max="1.7938819580078125e+03"/>
          <Range Index="3" Min="-5.9524517059326172e+00" Max="6.0167598724365234e+00"/>
          <Range Index="4" Min="-3.1415913105010986e+00" Max="3.1415886878967285e+00"/>
          <Range Index="5" Min="-8.3575832832138985e-05" Max="2.3148483276367188e+02"/>
          <Range Index="6" Min="0.0000000000000000e+00" Max="1.0000000000000000e+00"/>
        </Ranges>
      </Class>
    </Transform>
  </Transformations>
  <MVAPdfs/>
  <Weights>
    <Layout NLayers="3">
      <Layer Index="0" NNeurons="8">
        <Neuron NSynapses="12">
          -5.8679098935961871e-01 2.2012679031532651e+00 6.5495848814034519e-01 1.8927640774676890e+00 -3.0331556024349049e+00 -3.4074856377041662e-02 -6.3326640465284001e-01 2.6138990381641225e+00 -7.8930793697418067e-01 -7.5319119315389493e-01 -1.2733989823132557e+00 -4.4692251310152609e-01 
        </Neuron>
        <Neuron NSynapses="12">
          -1.4535885120067451e+00 3.7381721221894526e-01 1.2757948179877857e-01 5.7867667294465330e-01 5.7458419038052232e-02 5.2959585096815971e+00 2.6695599806946629e-01 7.7039943193094573e-01 1.4527933219244598e+00 -1.0224388810155980e+00 1.5595639522119165e+00 8.0281202061418824e-02 
        </Neuron>
        <Neuron NSynapses="12">
          -1.4273482569673437e+00 4.9667249059126695e-01 1.6009382670315628e+00 -1.1998652631585067e+00 -2.1532834985089173e+00 6.8547105368476768e-01 8.1191938895131754e-01 1.0867081213105039e+00 -4.5009857011068063e-02 -3.6370177350811528e-01 5.8487628893715515e-01 -3.0356832425513369e-01 
        </Neuron>
        <Neuron NSynapses="12">
          -1.4322178504272656e+00 1.5124997912765168e+00 -8.9894571975362569e-01 1.2703776501221635e+00 6.1226396490101953e-01 1.7684552730420935e-01 1.8073295654547279e+00 1.2727951464296272e+00 -9.9465346151010647e-01 -6.9219094666130820e-01 3.2914144813147772e-01 7.1617224290719497e-02 
        </Neuron>
        <Neuron NSynapses="12">
          1.2655008855785839e+00 9.7852802159443464e-01 3.3499577205926123e-01 1.1330846790993321e+00 -1.7106533291807438e+00 8.7465412247156649e-02 -1.7078482034862914e+00 -6.1486319758845187e-01 -1.1657654530685990e+00 -2.7507185871646977e-01 5.6384900774410596e-01 6.5386723837742222e-01 
        </Neuron>
        <Neuron NSynapses="12">
          -1.8159961289357485e+00 1.0538734321336538e+00 -1.8829035484770243e-01 5.7500733492287059e-01 1.5870057828660089e+00 2.3361897054986619e-01 2.5052592399153656e-01 -1.7190466649185139e+00 1.0239611920963276e+00 -1.0150064251360857e+00 -3.8677047165247802e-01 -1.4515985398088933e+00 
        </Neuron>
        <Neuron NSynapses="12">
          4.7790486227078444e-01 1.1490318231228442e+00 2.7231464827432155e+00 -3.9235494398920046e-01 -1.1877741312236552e+00 -4.8691280724781949e+00 1.1895938837448388e+00 -4.0460929053761713e-01 9.5095303186286673e-01 1.2650076885072756e+00 1.8139804529736767e+00 -7.8259776371102330e-01 
        </Neuron>
        <Neuron NSynapses="12">
          -6.0012142854017259e-01 -9.7610587948969418e-01 1.1837306419718274e+00 -1.0279953213623094e+00 -1.1469580116712241e+00 1.3145900444311893e+00 -3.5236378747208241e-01 4.8591260096883954e-01 2.3666126146740618e+00 -2.1794096149579452e+00 -1.0564787396734003e+00 1.6438015436058553e+00 
        </Neuron>
      </Layer>
      <Layer Index="1" NNeurons="13">
        <Neuron NSynapses="1">
          -1.9844607094703873e-01 
        </Neuron>
        <Neuron NSynapses="1">
          -1.1446442211845704e+00 
        </Neuron>
        <Neuron NSynapses="1">
          -2.0177838406160324e+00 
        </Neuron>
        <Neuron NSynapses="1">
          6.6311313132462568e-01 
        </Neuron>
        <Neuron NSynapses="1">
          -8.9025683947298728e-01 
        </Neuron>
        <Neuron NSynapses="1">
          -4.0319490942105558e+00 
        </Neuron>
        <Neuron NSynapses="1">
          1.4721537942585239e-02 
        </Neuron>
        <Neuron NSynapses="1">
          1.7107599219834118e+00 
        </Neuron>
        <Neuron NSynapses="1">
          -7.8202375202464658e-01 
        </Neuron>
        <Neuron NSynapses="1">
          1.0253985843479276e+00 
        </Neuron>
        <Neuron NSynapses="1">
          -1.4934865967998276e+00 
        </Neuron>
        <Neuron NSynapses="1">
          -3.5000162619544972e-01 
        </Neuron>
        <Neuron NSynapses="1">
          3.8563406113044640e-01 
        </Neuron>
      </Layer>
      <Layer Index="2" NNeurons="1">
        <Neuron NSynapses="0"/>
      </Layer>
    </Layout>
    <InverseHessian NElements="11881" NRows="109" NCols="109">
      <Row Index="0">
        2.3700895782173525e+01 3.2357351890834030e-01 -1.3657119426756577e+00 -2.5748008658565513e-01 -1.1460924093615321e-01 3.0709634524402462e-02 2.4275701468862660e+01 -5.3051597804632158e-02 -1.0307159500126090e-01 5.9636424933431506e-02 -1.7483388203678246e-01 -1.5187052285993440e+01 1.7095217712260059e+01 -3.9194634190471866e-01 1.3366159996098709e-01 8.8948632415579182e-02 -8.0458554472544519e-02 -7.9372131111015445e-02 -1.4517137957818017e+01 -1.4400991694668405e-01 -4.9593501901036408e-01 8.8814376144922957e-01 4.2841766202624226e-02 1.6550619449535063e+01 1.4335644876848185e+01 -6.4853692197604573e-01 9.9748428807638456e-02 9.2771067433203858e-01 -3.8659038047313066e-01 1.1947058164172280e-02 -2.0352907064065807e+01 -1.5769752372115908e-01 -2.2958147716032662e-01 2.0857705116212044e-01 -4.8244298749171288e-01 1.6137508064684425e+01 2.5661887566563188e+01 -1.9513366613876570e-01 4.4217659200719250e-01 -1.8539043576245054e-01 2.6764947933784866e-02 1.4473717309146820e-02 4.3860269028081067e+00 -1.4065967985366945e-01 7.8654947335177028e-02 1.0113516502267286e-01 8.4697903392380855e-02 1.2577249248029268e+01 -1.1364951231295864e+01 9.7744756811224409e-01 1.4641791236362778e-02 -3.9503495818457807e-01 -6.9547646615330680e-02 9.6763252389023063e-04 7.8380961359797832e+00 6.6318733487146259e-02 1.5871457384166665e-01 -1.3112292632978667e-02 7.0364357666083482e-02 3.9092552498636479e-01 2.4790446779718010e+01 -8.3274688180691214e-01 1.5528599856908429e-01 -8.4603287483105596e-02 -1.2074784773468605e-01 4.4573894161109781e-03 -4.8024711835140984e+01 -4.2960953681150348e-02 -2.9632195096492442e-01 5.7932247072994059e-01 -2.7848144587243406e-01 -1.3173770392578604e+01 -7.3144879125928410e+00 3.3997509904882328e-01 -1.0101664313646617e+00 -1.0376703942934229e-01 7.7374950398065551e-02 4.0628992481524739e-01 -3.6106716346532686e+00 -5.4612236206445369e-03 -4.6950492738469747e-02 -4.0881694165817267e-01 -1.6620735414638887e-01 -1.1183606663907366e+01 2.7423332218137922e+01 -2.4349421865306127e+00 -4.4357283724865448e-01 8.5600320083652992e-01 -5.4493934130898780e-01 3.8111173337857424e-01 -5.1043307495345431e+01 -3.2517654855133193e-01 -1.1096547753456163e+00 1.3605193639606954e+00 -6.7815400590141384e-01 -2.5651247366857959e+00 -3.0216125524941786e+00 -7.8843672775227969e-02 -2.2604169520902828e-01 3.1394259456448070e-01 1.4041388573511920e-01 -1.5072135715169110e-01 -1.1447624875612782e-01 -5.2958108952705307e-02 -2.2090921893426127e-01 3.3081978090658459e-01 2.7071820426718285e-01 1.8997706819234647e+01 -1.5955348642336372e+01 
      </Row>
      <Row Index="1">
        3.2357352065710832e-01 1.8707487156882692e+01 3.8085093481621080e-01 1.5581900033519140e+00 -7.7655631877969686e-03 3.7209818676741099e-02 -1.4466496689307817e+00 3.1428317139976646e-02 1.1149986515872355e-01 -3.1503375607415296e-01 -5.8614915897049802e-01 8.6196850796386055e+00 -4.3087038375374909e-01 2.3363156832903362e+00 -4.8085099961682398e-01 5.7871997518752649e-01 -1.4312022679304429e-01 -3.0976986154393915e-01 -3.8554587787553913e+00 3.5771673329493492e-02 -3.1274277038305359e-01 8.8023383994826498e-01 5.6409041316639441e-01 -3.4599517640860395e+00 -1.6767766613572910e-01 1.1542961549999106e+01 8.0419785118501841e-02 -1.8300077989930679e+00 1.1612218792140891e-01 -1.0939164197335068e-02 1.3832358366587658e+00 3.6278591388778522e-02 2.1967092539718214e-01 1.2346895445019251e-01 2.6672251783470313e-01 5.8466601658652380e+00 -6.7946625820604822e-01 1.4253830267851374e+01 1.8431219500391852e-02 8.6793237488745101e-01 1.0908039683468804e-02 2.8842961924716009e-02 2.4042962583343236e-01 3.5724810971815152e-02 1.8455542043623352e-01 -2.4226350229393434e-01 5.8123056913554003e-02 -6.7655063943082796e+00 -3.9153364547051461e-01 8.4088658461210013e+00 -9.8046779533367323e-02 9.4339013587325538e-01 -1.7352403834609745e-02 8.4395995505025310e-04 -2.6105961212669260e+00 1.0938274999179114e-02 1.8695788689335902e-01 -2.2831992255995237e-01 7.9619978574629088e-02 -9.3677263895209517e+00 1.0382542053623314e+00 6.2058433648074889e+00 3.5606846315834551e-01 5.1456750806877671e-01 2.3682275219603260e-01 4.4257769609745992e-02 1.7475705454279122e-02 5.5109030671636142e-03 -2.3497939411925051e-01 -2.1127448972532037e-01 -5.0845805583163359e-02 2.0406579909427371e+01 1.8263751983975016e+00 8.6397908868643736e+00 2.7951475004392767e-01 -2.4893934707565224e+00 1.0286677892870947e-02 1.8279171975999037e-01 6.2629334645686896e-01 -5.1493963766611195e-03 1.6210762863848058e-01 -1.4188406740673591e+00 2.7808539625380047e-01 9.5048792726328344e+00 1.8018681423671339e+00 5.2327709851879711e-01 -1.9216894437864340e-02 -2.6994376459799305e+00 1.7354776161292407e-01 -3.3644059845075208e-02 -3.9715393187336581e+00 8.5383443718762497e-02 -7.5934143405347182e-03 -1.0835279187314506e+00 1.6589983143553200e-02 1.4764343730059798e+01 9.0383655691270992e-02 7.4485117312570672e+00 -1.9247039886678802e-01 -1.0302970224931325e+00 5.0361736175032409e-02 -4.7942110411600780e-01 -3.3954240236541561e-02 -6.0730145583149202e-03 -2.4765942379169761e-01 -5.3022151645464277e-01 6.2310634584534186e-01 -1.7342421832131745e+01 2.4090330572795764e+01 
      </Row>
      <Row Index="2">
        -1.3657119433763241e+00 3.8085093552865601e-01 3.1147736972790030e+00 -1.0908617674585352e-01 -2.3312511921983331e-01 -7.6311801295493292e-03 -1.7185264770676709e+00 1.7375743365707189e-02 -2.5946998768242399e-02 1.7001499706062219e-02 -1.2746080852858768e-01 -2.0538857930465593e-01 -1.6999296418402909e+00 -9.1512107391802822e-02 2.2555869342082055e-01 -9.0802348956021545e-02 5.8221379829585689e-02 4.3369515099706289e-02 5.4651174106422973e+00 7.0604549203305209e-04 3.6890009574345885e-02 -1.6864040002014855e-01 5.4022682737607033e-02 8.6650149364927920e-01 -1.4549358150021932e+00 -9.1955110152144925e-01 2.2180338932802997e+00 3.8655581127497274e-01 -9.8630776515703261e-02 7.5304215322011059e-03 7.7699116993562827e+00 8.2502049272114159e-03 3.9351709138736236e-02 -7.4290402424299740e-02 3.7364161140450036e-01 2.3825344673922877e+00 -1.0316842328746816e+00 -2.0545326848829248e-01 -8.3921389400198565e-01 -1.7012039927935937e-01 2.8441132071216818e-02 -9.6528052363970950e-04 1.4042237877731323e+00 1.6957933770756169e-02 -4.3361989271299514e-02 1.0201245179788501e-01 -1.1853404783717969e-01 -6.2888969391950935e+00 9.7585198818915320e-01 2.9267454429843992e-01 1.7690347394925365e-01 -1.1144693158347296e-01 -1.1540733964807678e-01 -2.2899100602792738e-03 6.5717711601868500e-01 -1.6609135768884412e-02 -2.4092464620481369e-02 -1.1731011147345732e-02 2.5284987738552304e-02 3.0219743577480962e+00 -1.6048806443012307e+00 1.7074608171183669e-02 4.8628274858820458e-02 -2.9095233023090733e-01 2.4460371134972311e-01 -1.2032712277790713e-02 6.3150097962328946e+00 4.2079115738937869e-02 4.1539139913493034e-02 -2.4796570480619409e-02 -9.4284747790311277e-02 -1.5041162548331410e+00 4.8775993659565570e-01 5.1055529551256196e-01 2.9029662201352022e+00 1.8755734059630200e-01 -9.2088476884327267e-02 -1.3586912377453294e-02 -3.4546602686541750e-02 1.2560193803875885e-01 1.2476419013946218e-02 4.5853361943604058e-02 3.4820737061740936e-03 4.7754908805832541e-01 -2.1591853478568508e+00 -9.7404903782012031e-01 3.7086358987641010e+00 2.5872780727927758e-01 1.1412873681043126e-01 1.4758534950948792e-02 1.4760629119491979e+01 1.7268218203199334e-01 9.8548809560831660e-02 -1.5442060753655429e-01 1.7804608003740580e-01 3.2080327894732003e-02 2.5195628959432664e-01 -2.3726624568274367e-02 1.8661774025250077e-01 1.3108973806620969e-01 9.4679613076892377e-02 7.0358173896684528e-02 1.2796439526958095e-02 5.7818934262779051e-04 3.5207410016273658e-02 4.8492079371169380e-02 -2.5367034009925103e-02 2.1354497329698181e+00 -2.2573971372637258e+00 
      </Row>
      <Row Index="3">
        -2.5748008597670352e-01 1.5581900030831690e+00 -1.0908617691337158e-01 8.7466409202520534e-01 1.1368039494571719e-01 -1.8660863107022667e-03 -1.1488887112806216e+00 -4.5399354269329553e-03 4.3054707581442628e-02 -9.9671693102010225e-02 -5.8115898798594152e-03 2.0999737691000431e+00 -3.1389733490782901e-01 6.7647974756310236e-02 -5.5715614449698830e-02 2.3128884242964326e-01 -3.9819943018582174e-02 8.1278204679444480e-03 -1.5404803410177559e+00 1.8106800016944719e-02 -1.5177280978726909e-01 -5.1772218951358934e-03 8.0687321194393216e-03 8.8262699698902569e-01 1.1150241534517136e-01 9.7179299641237549e-01 -2.5209977113861287e-01 -8.3637378413051044e-01 8.2557154984028991e-02 1.4579195803706447e-02 1.9308526086161586e+00 2.1752813403468326e-03 9.1346675397937269e-02 3.3577849813719390e-02 6.2678397174914802e-02 -8.6799446190470619e-01 -2.2040840518002369e-02 1.1425180414132634e+00 5.2924805467647391e-02 4.6788375322395409e-01 7.2276941440739817e-03 1.4332264442807555e-03 2.4284007202099445e-05 7.1249102668423520e-03 9.7715769048234313e-02 -9.7080871936210331e-02 4.1652729868459915e-03 -1.3205031155608526e-01 -1.8922957224155768e-01 6.9387912767175774e-01 -4.6829079448005295e-02 4.9019241819859072e-01 3.7484405889276373e-02 -2.9664974060352595e-04 -4.4310951522177122e-01 6.1900908495505906e-04 9.2986410975461647e-02 -8.0642421813961682e-02 1.4432670123620185e-02 -1.7689887047051123e+00 -1.2653234566080129e-01 6.5358387858074130e-01 8.3915599339026342e-02 2.9758431032443311e-01 -2.7913054077634919e-02 5.3824267476409102e-03 7.3599841228410945e-01 -3.3845763498019377e-05 -1.2219174575905670e-01 -4.6433064204981701e-02 1.0453823054592994e-02 4.7780297206645281e+00 1.1343071459096632e-01 9.8393346241693747e-01 -2.4774801656814910e-01 -2.4999038830575376e-01 1.5256262100530814e-02 8.7162399663528612e-03 4.9545930190038456e-01 -1.0353023855058745e-02 -3.6775894940694692e-02 -5.6312787377910123e-04 5.3460545387321555e-02 2.3876510712107533e+00 -4.1312127971497720e-01 -1.2702556361529771e-01 -1.8566300981048561e-01 -3.7529315095032784e-01 7.7674768162729668e-02 3.1895942885925566e-02 1.0860706181913099e-01 1.7229409203591492e-03 -1.3496469637097996e-01 -1.6128895826627840e-01 1.8600177231809858e-02 7.4235400521438617e+00 3.9155457040283975e-02 6.5941593506246798e-01 4.9376666286211401e-02 -3.9749450008936543e-01 -3.1418685380061304e-02 5.6154201980225978e-03 -1.4045404798653039e-03 7.5951655369685036e-03 -1.2008045557192769e-01 -9.4892921167192348e-02 2.0779576636507580e-02 -5.4818796795941713e+00 5.8339477441235061e+00 
      </Row>
      <Row Index="4">
        -1.1460924031073483e-01 -7.7655636930131777e-03 -2.3312511930020097e-01 1.1368039485940482e-01 3.5495176311355842e-01 4.4986671548029591e-03 -5.2482703696051269e-01 4.2292337196141519e-03 7.3586936059222572e-03 3.2030728293478755e-03 8.4789704709052935e-02 1.4675082629024088e+00 9.9477894492402172e-02 1.4155745106093656e-01 -1.2425608412227671e-01 3.5895792921922937e-02 -1.0303698154297988e-02 2.0950777749750146e-03 1.0092203784253284e+00 -4.8904137378377628e-03 3.2920520147706588e-03 8.0784651656402549e-03 3.3063503659989850e-03 1.5947707005020653e-01 -3.2438758153441455e-01 7.7973917954863303e-02 -5.1813878364123633e-01 -2.5542306908067663e-01 2.1508153575045794e-01 2.0936529671243126e-03 -2.9431974014486617e-01 5.8344991914055233e-03 -2.1444473520488457e-03 9.5716080652156130e-03 6.5620346219492393e-02 3.8658093406401806e-02 -1.7383665514444147e-01 -7.5819738406698423e-02 1.2779727575160127e-01 1.1635754854485469e-01 -6.5443306439347385e-02 -1.3303072840241490e-03 1.8602344914239241e-01 -2.9248409906249754e-03 1.5511470655905069e-02 -2.8938865556134615e-02 -8.8037423389089042e-03 1.2481731645978082e+00 -9.5830322899885800e-03 -9.6430556032906220e-02 -6.7803015445129192e-02 3.6430717899651403e-02 1.8540500464113649e-01 7.4831892133251634e-05 -6.7364606151905848e-01 1.6721613039062209e-03 1.0458144206998886e-02 -5.8830607080798958e-03 2.5995111060419435e-02 -2.1187393588578285e+00 9.0412654282079563e-02 -9.1475098112026920e-02 1.0854365488751128e-02 1.3245369519508371e-01 -2.3157062820065372e-01 3.1605739213726191e-03 -1.0799029784951468e+00 -8.5855579263513868e-03 -4.8046732050012735e-03 4.2327685932280592e-03 7.6584557803794188e-03 3.8033308941342194e+00 -4.0831847394226939e-01 -2.2552690606166742e-02 -6.4552291463756883e-01 -9.0536134517315570e-03 8.8555620508138061e-02 7.1259793035463115e-03 2.9054985956064772e-01 -4.3145408333719890e-03 2.7279938992418439e-03 4.4077765668456732e-03 6.8889577350248865e-02 1.8826090739937289e+00 -5.2310194441720359e-01 2.5938368998247463e-01 -3.5765502248823222e-01 -7.2175026213830207e-02 1.1801755744298795e-01 1.7079001262982497e-02 -1.0105320105954507e+00 -5.7941791510052933e-03 2.7786646575621316e-03 4.4257103062677675e-03 6.7589884507585116e-02 4.3628011949378820e+00 9.0780492350711374e-03 2.6416452599638582e-02 -6.6654925245650046e-02 -7.8396751659227007e-02 -1.1339156253931437e-01 1.3287416235320817e-03 3.2089613028049579e-04 -2.1552137546602323e-03 -1.0685079164020643e-02 -7.4550453847367628e-03 -5.8467451434899920e-03 -3.9060892861975454e+00 3.8976108526640441e+00 
      </Row>
      <Row Index="5">
        3.0709634530389891e-02 3.7209818649276194e-02 -7.6311801173659169e-03 -1.8660863217391231e-03 4.4986671431023768e-03 5.7271537913916757e-03 -8.7177142641190447e-02 -1.0325701349026598e-03 -1.6608054321460902e-03 2.9387281893288215e-03 1.9306814147158624e-03 -5.1444130681789157e-02 3.7192495489401650e-02 7.4961610300002271e-02 3.6968529925006013e-03 -9.5671007242035117e-03 1.3816201949177140e-02 -1.6190575777975572e-02 3.4229734663177092e-01 -6.8784566907992527e-03 4.8011489699574007e-05 4.8101422652236374e-02 -7.8267607399556908e-03 4.4650751163824676e-01 1.0875438415747680e-02 1.9997776810760481e-02 -1.3293486277504197e-02 4.7299044661779071e-03 1.0411494038008113e-03 -1.3627679324398636e-03 -3.3092087343228230e-02 -8.1408452978410663e-04 -1.7001199381931947e-03 3.5932743197562090e-03 -2.2776444248401731e-03 1.4851820307374752e-02 2.0830759364045548e-02 1.2209352112311667e-02 5.3824042507309927e-03 -5.3403838324062036e-03 -2.3418035384566525e-03 1.9668769150648279e-03 3.9549779696279645e-02 9.8205198248425352e-05 -5.8387850287826542e-04 -5.1617196013286045e-03 -1.0620680515556202e-03 -1.4174103717733574e-02 -1.0256113608456192e-02 6.4636871200916962e-03 -5.3164705998282186e-03 -5.8251924603240348e-03 2.2323556579915203e-03 6.2444099853786489e-04 -8.1103625681214264e-02 6.8244615615525406e-04 -1.1113975572390783e-03 -2.0607742224964180e-03 7.0185848518117527e-04 -1.9394383923882531e-02 2.4830773945583362e-02 5.7602583492267767e-03 6.4031533401398139e-03 -1.6108871731975831e-03 -4.7775386502976677e-03 1.5099743977699748e-03 -9.7442924894299843e-02 3.8852728376531274e-03 1.0785385273823470e-03 -1.3433348178617898e-02 -3.4862794694878732e-03 -1.2805223533032450e-01 -7.9165191533179635e-02 1.8058687673270513e-02 -2.1140749410487700e-02 -8.1110721560223448e-03 1.0765249021771756e-03 2.3950462865807043e-02 1.6370056111728482e-02 -7.7661147708515802e-04 1.1657148671479177e-03 -1.4288972595500360e-02 4.9411943355105615e-03 -5.4485971287084621e-02 -2.2366253306597139e-02 5.4978524855697819e-02 -5.7771892258678958e-04 -7.9247582826941828e-03 1.1031875592953308e-02 1.4388201365035009e-02 9.9518448542457394e-02 -5.0169259120173715e-03 -1.4745956581070432e-03 2.3621611115731918e-02 -1.5441981946437061e-02 -5.5814676031456623e-02 -4.4680939197437701e-03 6.7940375919932350e-04 1.3471477510576186e-03 3.4699825567694412e-03 -1.8268592213399005e-03 -2.5728870301660763e-02 -1.2948906365047809e-03 2.1086287120066680e-03 9.2400290980121987e-04 -2.4902580665349013e-02 -2.1240401901517908e-03 2.9459302484768701e-01 -2.8539559372334256e-01 
      </Row>
      <Row Index="6">
        2.4275701438515895e+01 -1.4466496448540056e+00 -1.7185264728029885e+00 -1.1488887074199319e+00 -5.2482703730067248e-01 -8.7177143207091093e-02 4.0108123522378946e+02 5.5182497388302498e-02 -5.7519620872433763e-01 -4.4465368999597743e-02 -4.1132431128431790e-01 -7.0285347455405059e+01 -3.0444439373781869e+00 -4.2135122883637646e+00 3.1888744754989382e+00 -1.3282282335150994e+00 -2.7799291906032403e-01 4.8243306474447289e-01 -4.5248275380376235e+01 2.6626306029195929e-01 4.0060728479740587e-01 -1.0390460731856328e+00 2.4418821315426018e+00 5.3855439404141521e+01 2.5242274596696959e+00 2.4311673505860654e-01 5.6808332795652747e+00 1.5133762015168646e+00 -1.5785427683016384e-01 -3.3989576834757562e-02 -6.2806533445598234e+01 2.7868897095652267e-01 1.7781251343825968e-01 -2.9303842823577675e-01 2.3235014100272426e+00 -3.2968694380518855e+00 1.9410561201533710e+01 2.6440535749269518e+00 -5.3047191601045114e+00 -1.1733919426433204e+00 6.2833709179540165e-01 -1.2690533592975180e-02 -8.0819479656808141e+01 -5.4926003843627524e-01 3.7866156393644435e-03 6.4323165281429029e-01 1.6895188882583625e+00 1.3419218283610121e+01 -2.4600331091189034e+00 -2.0431801649748440e+00 3.8895392352772440e+00 -1.4636074138318258e+00 -3.5069037166124384e-01 -4.0308847829588032e-02 1.3377369523756678e+02 5.9007432436733376e-01 -1.5292406735764397e-01 1.0530875112109395e-01 1.6687966277330787e-01 5.9448640965584303e+01 -1.4387139830518763e+00 -2.7266632831445676e+00 -1.5199988358023102e+00 1.7750396469962215e-01 -1.7197753183178355e-01 9.0826521480359690e-04 -6.5094505176615655e+01 -9.0277670005522592e-01 -1.5290600722767864e-01 9.6173526181807689e-01 -2.3763356272069349e+00 -1.2807670754628276e+02 -3.0790322230691999e+01 2.9894953766091770e-01 8.1987143144517027e+00 4.1466180220620869e-01 2.6680133907556858e-02 1.5659288933393625e+00 -5.3867408870821222e+01 4.9497567968474476e-01 -8.0417170356922674e-01 -8.8148508656749369e-01 1.6600378735265160e+00 -5.8840033381874818e+01 -1.8714134038295981e+01 -3.2417342008042738e+00 5.4161650986136269e+00 6.4724769518404890e-01 -6.0711706594440795e-01 1.8979118822914023e+00 2.3070994250802204e+02 3.5997941594882166e-01 -9.1436551425452295e-01 -1.1520721850338729e+00 5.3810981084583709e-01 -2.2707672344803697e+02 -5.3717734010912366e-01 3.6811304478984130e-01 -1.7162676624359710e+00 1.3900849973424572e+00 6.3336302345804607e-01 7.6290604575493370e-01 2.1244321335975878e+00 -6.3284752574004532e-01 1.8599330705801778e-01 1.1415437089273182e+00 2.8414555302750086e+00 2.0399825076931526e+02 -1.9973863148684688e+02 
      </Row>
      <Row Index="7">
        -5.3051597858743110e-02 3.1428317188363586e-02 1.7375743365837387e-02 -4.5399354154647686e-03 4.2292337254301246e-03 -1.0325701357952774e-03 5.5182497077904638e-02 3.6769608373666836e-02 -7.0102865573055118e-03 3.5410828126423641e-03 -9.0791611843311082e-03 -1.3733879787051584e-01 5.1626137753996507e-03 -2.2093209263369724e-02 2.7613298870875352e-03 4.7940793293194724e-04 7.6759129301587001e-04 5.7788020664856286e-04 3.7980197158119899e-02 9.6767442245289208e-03 8.6681451245942068e-03 -1.0908584940836808e-02 5.7612985677033849e-03 1.1262814379693953e-01 -5.0269782027188681e-02 1.5823807837761272e-02 2.4085483657103834e-02 3.5541509802483509e-02 2.5211324328617800e-03 -5.7020938528600537e-04 -6.9455349337699923e-01 1.9986318537052752e-02 -3.0591792350140659e-03 -3.4971637406312588e-03 3.9944894854255231e-03 2.2340854115653730e-01 2.8273609600248051e-02 2.0203311411970348e-02 -1.5179837316066258e-02 -1.6450206172389237e-03 1.1943259518645277e-03 -7.4981030503153676e-04 -7.6533369597933354e-01 1.2043969478551396e-02 -7.0992604487037161e-03 -1.9272677514712878e-03 1.5767095475454074e-03 -5.6167023818943562e-02 3.3806820374912921e-02 1.2319101160374017e-02 8.6547565346513367e-03 -3.2214815767712499e-02 -1.2856966483271275e-03 -2.8073726440167122e-05 6.5370088201093268e-01 -8.4305870688970476e-03 -1.0458990487606191e-03 1.4595898095962441e-03 -9.4559663941547537e-04 -4.2256865453630880e-02 5.8699435263556476e-02 2.6110513322329165e-02 5.6332780937929424e-05 -3.3311939365896368e-02 -6.2482056363830432e-03 1.0807639918690426e-03 -1.9968876170508898e-01 -2.6955907548211686e-02 1.2262944086481802e-02 -7.9518320847570823e-03 3.1609870102385744e-03 -4.1974025136749749e-02 -9.3593415147503412e-02 2.4048765695493076e-02 2.9022628974164764e-02 -7.4608877577185496e-03 -7.3196520164183973e-04 3.4899141837978482e-03 -3.9784995528810763e-01 -2.0286127107147084e-03 4.9589524860092424e-04 1.4658409289452826e-03 -1.6442617890153957e-03 1.0126147517324630e-02 -1.0059753366622726e-01 -1.8622966490666748e-02 3.6640904440600683e-02 1.5042250518340001e-02 2.4024910353700607e-03 3.4963832000587032e-03 -4.6069077173733042e-01 2.1386548909516405e-02 8.7912078081874203e-03 -1.7875419218853189e-02 5.4107032714176134e-03 -1.8966255024495560e-01 1.1242159977152728e-04 9.2177536456966250e-03 -5.0420261907662758e-03 1.5721095596994306e-02 3.4451436709664852e-04 1.6852439684987774e-03 7.7969157144393850e-03 -2.6624765992567603e-02 5.2389155479247223e-03 -4.5196207971300376e-03 5.9362463182288834e-03 1.7058739538144763e-01 -1.6304540881838767e-01 
      </Row>
      <Row Index="8">
        -1.0307159452299300e-01 1.1149986477349216e-01 -2.5946998827469175e-02 4.3054707515814000e-02 7.3586936050382898e-03 -1.6608054231401980e-03 -5.7519620841534880e-01 -7.0102865614587858e-03 5.3461638796575915e-02 1.6520707909821998e-02 8.1221982836066076e-04 1.0483259632537845e+00 2.7691898950160332e-02 -1.0074564913798614e-02 -2.4647355323462079e-02 3.7786159238117963e-02 -2.2453228545121849e-02 5.1756726290012947e-03 -5.8515874262595879e-01 2.9217694339106048e-03 -3.0708001847769319e-02 3.0238839125263456e-02 2.4453889144321608e-03 -1.1270054376248861e-01 2.0644341256147203e-01 4.4124124552769928e-02 -2.9681846043529046e-02 -9.4550265291733132e-02 1.3238370099412859e-02 2.7526734855909734e-03 3.1078612940882122e-01 -8.0126752663850550e-03 9.0286849802955413e-03 1.2523220774235795e-02 5.4523789530599998e-03 1.5284708814479098e-01 2.3608323294274669e-01 9.4340080685344052e-02 1.1301957286187381e-02 3.3484002651320566e-02 -1.9279249338524096e-03 5.1614645046234645e-04 -1.6864482938744155e-01 -1.7512204923119251e-03 2.1584150138079149e-02 -2.2116744147398539e-03 -1.5978375582825777e-03 -3.6106748919701204e-01 -1.5304507107497034e-01 5.9653275634629632e-02 -6.3285149855364375e-03 4.7400541383723335e-02 1.1975806738861356e-02 -3.6625830293768162e-04 -3.1845208011147053e-01 5.4051889845831980e-03 2.1439380924455090e-02 -1.0332490521614050e-02 -3.1853233344678275e-03 -8.4776266520134147e-01 1.3170976886182195e-01 5.7756774519038621e-02 2.7616526420468190e-02 5.4685459848720815e-02 -1.5002152722907350e-02 1.0993298043771795e-03 -9.6714930132179244e-02 1.4691355103222409e-02 -2.9237264699880069e-02 1.9295001910134633e-02 7.8068567986712759e-03 1.9941198736416283e+00 1.6467806081443287e-01 3.5145843689133455e-02 -1.8945760745900431e-02 5.4575322823706210e-03 2.5547304209276381e-03 -1.2501964585411984e-04 9.3437975028080267e-02 -2.6795245299363773e-03 -8.5740661899409119e-03 -1.5179068052086984e-02 -1.3324627191652900e-02 1.0755969870210278e+00 1.0463796841685769e-01 -3.0831447803423284e-02 -4.7997237584306310e-02 -1.6602714630776665e-02 -2.4612456184941275e-02 6.2947811873936502e-03 -9.1802197107438033e-01 1.1195103408563264e-03 -8.0091611636470272e-03 4.6917959019279705e-02 2.7996141647991205e-02 3.8094994277579741e+00 -4.6162025158495122e-03 6.1903891537148099e-02 -9.0566930261244336e-03 -3.9846335624891253e-02 -3.7814543972411532e-03 4.9801092745598349e-03 -2.1086994954965651e-03 1.6325639824268649e-02 -2.4666336680704719e-02 1.6701702315823644e-02 4.2523552689271230e-03 -2.8684764350533687e+00 2.9179797466073274e+00 
      </Row>
      <Row Index="9">
        5.9636425116242592e-02 -3.1503375621623775e-01 1.7001499695375764e-02 -9.9671693137133838e-02 3.2030728169160014e-03 2.9387281937016557e-03 -4.4465368339928479e-02 3.5410828116995809e-03 1.6520707902471118e-02 2.0935719192917776e-01 -3.5469047897045414e-02 4.5464420449401255e-01 2.8335033541456778e-02 5.7006873998402048e-02 7.6204258160329844e-03 -5.8407269010595508e-02 3.0942393087362990e-02 7.9017972912887341e-02 1.0403467485795463e+00 -8.3927979918620010e-03 3.9077070000455114e-02 -5.6165183412950008e-02 4.8238423278238206e-02 -1.3721645930900852e+00 -9.8521397861862314e-02 -2.2308906286419727e-01 -7.1145428903369723e-02 1.6912017440203109e-01 -3.4803061116155935e-02 4.0607674638285388e-03 -8.9835753286211983e-01 -2.1278026906447782e-03 -2.3299044725016690e-02 1.4768742651171014e-02 3.4883157928927655e-02 -3.7229925205648406e-01 5.2060245810480410e-02 -2.1963755684067227e-01 3.8397500491482987e-02 -8.8010758862345995e-02 5.5086989444248502e-03 -4.2828696896876541e-03 -1.0163307704206044e+00 9.0369020396691147e-03 -8.3083853426728707e-03 1.1097688409449402e-01 6.3824094346855986e-03 1.7616882627044106e-01 4.0371708645756788e-02 -1.4684041242276180e-01 -9.1356953901494398e-03 -8.3533980069388142e-02 6.3969746493110664e-03 -1.0863859551635247e-03 3.9862806270774698e-01 6.9122150596263587e-03 -1.6496903858595893e-02 5.1002608918698240e-02 6.6499839423949823e-03 -1.6285909697261980e-01 -7.6109406602361623e-02 -7.2897139847359016e-02 2.4249679194505231e-02 1.4134597338167892e-02 -1.1687379677269294e-03 -1.0653875515735437e-02 -1.1895428101212264e+00 2.1566440967932338e-02 9.4722709096441149e-03 1.1046170612499237e-01 -9.9854848228079357e-03 1.0146083996787569e+00 7.5281924681469867e-02 -6.3216067297810610e-02 -7.9550933566487847e-02 8.2430945019871582e-02 -1.8507121300443399e-03 -9.1226996148754333e-02 -2.4912419055455270e-01 2.9022860905085594e-03 1.4689390201015645e-02 4.0106853661914930e-02 9.7193085392693071e-02 3.2613769162036799e-01 3.7529271506901551e-02 9.4165098738089537e-02 5.5601889205059152e-02 2.2925522732657261e-01 -2.0482917855147997e-03 -2.4408850049926611e-02 -6.2796645361409942e-01 1.0954998260565806e-02 4.6190891670383469e-02 2.7904326944567204e-01 -5.4586205569441937e-02 -3.0795973786231057e-02 3.6874257393622618e-03 -2.2100269151987675e-01 -1.2600550699238611e-01 6.2544346930408001e-02 -4.4040569758255982e-03 1.1270573730140496e-01 6.0949652915515389e-03 1.1813890149451851e-02 2.1853974926117011e-02 2.2829068368833380e-01 3.9808845278614433e-02 -9.8631346559457678e-01 8.1876819534571998e-01 
      </Row>
      <Row Index="10">
        -1.7483388285935952e-01 -5.8614915824394842e-01 -1.2746080848535182e-01 -5.8115897260608970e-03 8.4789704760752690e-02 1.9306813990835458e-03 -4.1132431425798105e-01 -9.0791611813417026e-03 8.1221986535334463e-04 -3.5469047892459714e-02 4.4358424303857191e-01 -1.2684252438009218e+00 9.3450675138166420e-02 1.3138091842881827e-01 -2.0962333083283571e-01 1.0522981318275209e-02 -7.2106605320870085e-02 -2.4002024493164530e-02 1.3276526773882802e+00 -1.0015024611658071e-02 -2.0373921733118885e-02 3.6172739574595242e-02 -2.9900005679664510e-01 -3.7175944920972683e+00 1.5740991981758390e-01 -3.3088290594789660e-01 -6.5291642218290910e-02 -1.0623949279819020e-01 7.1386533881177897e-02 -2.5065466222286945e-03 1.1558504548164439e+00 -9.3745494375781814e-03 -3.2497256366910215e-04 -2.4219741022891350e-03 -8.4557353667027435e-03 -3.2901538576204108e+00 2.9625819855982627e-01 -4.4390234327630812e-01 -2.1662946389649967e-01 7.0502139212010206e-02 -4.7905010609838428e-02 2.3241529637514757e-03 6.0499875403547776e-01 -4.5304188914445237e-03 -2.6191669475757835e-03 -2.4302011809359394e-02 -8.3679699386181028e-02 -3.3049775284307543e+00 -1.6013239815009045e-02 -4.8735550228275315e-01 -3.1550744327581301e-02 2.8891073641179588e-02 6.1868510115067242e-02 1.8051635968970227e-03 -2.9987811078479831e-01 -7.9994504099900610e-04 4.9651681233969401e-04 -4.3699769073033395e-03 -5.0092701684311215e-02 2.0887623740586467e+00 -1.1432506822225084e-01 -2.1591521782910955e-01 1.6667829669414336e-01 5.7564236143401844e-02 -5.8669968071827110e-02 -7.9633075833434718e-04 -2.4228477979055807e-03 2.6701899486248088e-03 -6.7954214475189328e-03 -2.8681980556818892e-02 -2.0375355415209503e-02 -4.4757570891421778e+00 1.8617601843982965e+00 -2.2452095584527179e-01 1.8995633769946632e-02 4.8632451659760038e-02 1.9664277424307069e-02 -8.5266719710445929e-02 -8.4274697166319967e-02 -1.0796793346676121e-02 -1.6800091507851396e-02 9.0911243967302144e-02 -1.3107963167432501e-01 -1.3519632273318001e+00 1.5790264049918294e+00 3.3776001273307499e-01 -7.4437299258423240e-02 -2.1791842656181552e-02 -3.4159121767950398e-02 -1.0783575544825159e-01 1.4434223971559081e+00 -3.0869627453386263e-02 -3.7068924283335018e-02 6.9576719367136317e-02 2.1187604726482423e-01 -8.3341603708968783e+00 5.1399430172014635e-02 -2.9170709630718039e-01 2.5189293564071075e-01 -4.0504052813607007e-02 -5.6399195354242398e-02 -3.6910412703627861e-02 -4.2269632076567653e-03 5.0206880099270008e-03 -2.6458527581542167e-03 -5.3101852324053025e-02 -3.6333832930585058e-01 3.1518943181436274e+00 -3.5938697223946061e+00 
      </Row>
      <Row Index="11">
        -1.5187052084880463e+01 8.6196849161424325e+00 -2.0538860556470340e-01 2.0999737419567714e+00 1.4675082634942687e+00 -5.1444126863498855e-02 -7.0285347368345910e+01 -1.3733879976838184e-01 1.0483259639739186e+00 4.5464420818040729e-01 -1.2684252610160911e+00 4.8128792480251803e+02 -3.1350305126649875e+01 8.3016507174672993e-01 -3.0530151749247625e-01 1.3277209933782463e+00 9.1715897262029472e-02 6.4397850221991426e-01 -2.0415084018595671e+01 5.0456841377209782e-01 -6.0932765177485904e-01 6.3796280327592347e-01 2.2716603340676924e+00 -7.2392506751422303e+01 -2.9722029433753704e+01 3.0819790957141890e-01 -5.0047955872918832e+00 -2.9079211562746892e+00 2.3140602980453034e-01 1.6779531312691454e-01 5.5323649100696599e+01 -3.4101978581544268e-01 -3.3445572840608945e-01 6.4737151616433564e-02 5.4397062290733516e+00 1.1413014036786578e+01 -4.8143369969388004e+01 1.1626435956745341e+01 -4.6009573345820454e-01 1.1187447884440189e+00 2.3269769886974245e-01 -5.4067691708455087e-02 4.9001307885861024e+01 1.8473640732593416e-01 8.8715349551194822e-01 -3.7441641399789949e-03 -3.3672790876335057e-01 -1.1607635284960270e+02 2.3480361439727268e+01 1.1937810119474307e+01 -3.6906986723515458e+00 1.5082371450793541e+00 1.0630655841256824e+00 -5.1845739772109038e-02 -5.3118739144139248e+01 1.3796306562198879e-02 7.4649212110933005e-01 -1.5102413315258162e-01 -6.3703442536643706e-01 -3.5777506267435155e+02 -6.0699575697178858e+00 1.6185534761240898e+00 8.5184140467546943e+00 1.7436808659401137e+00 -2.5540607322263762e+00 2.6712855490691778e-01 -5.2726224664529553e+01 4.4620955497780096e-01 -6.4949998437895884e-01 1.1548002029907591e+00 3.8617626673839314e+00 8.4157896390318842e+02 4.4916542628181517e+01 4.0751653065989446e+00 -4.4239094820707772e+00 2.0896290057327747e+00 2.5848051413075857e-01 -1.6855073278137029e+00 2.7892539101668206e+01 2.1131952035177079e-02 6.2481608840041047e-01 -1.6193152734107217e+00 1.2938404732930295e+00 4.0045463477455377e+02 2.4753969108200430e+01 -9.7082271860916478e+00 6.7205205559430681e+00 2.4943224698186945e+00 -1.5219376770348161e+00 -7.7849171706141373e-01 -7.7813690152827235e+01 4.8119064188406457e-01 -1.1011684723875392e-01 -4.5374498818862352e-02 8.4751700211670205e+00 1.7283993043167523e+03 2.7293362637699183e+00 7.3926374382214268e+00 -3.5865768433714784e+00 -1.5528440238896841e+00 -7.5685486414780268e-01 8.2669496642680684e-01 -7.7013001539662596e-01 1.2581783521698781e-01 -9.1276483353849946e-01 1.3248167883097612e+00 2.8107666286749273e+00 -1.2673886053926483e+03 1.2699927284122766e+03 
      </Row>
      <Row Index="12">
        1.7095217699354798e+01 -4.3087037659688576e-01 -1.6999296390745473e+00 -3.1389733416351989e-01 9.9477893489909708e-02 3.7192495227742046e-02 -3.0444438966793816e+00 5.1626139806609239e-03 2.7691898168921508e-02 2.8335033063748905e-02 9.3450677489869349e-02 -3.1350305432499010e+01 5.5274743178375914e+01 -7.4547886454709555e-02 2.6104602003984612e-01 -1.6091342347732743e-01 1.6235172848994622e-01 -1.7083974464965457e-01 5.2403448634500513e+00 -4.1350552360261916e-02 -4.0432825250107030e-01 9.4784750433935083e-01 -6.4340237933567768e-01 3.5632673054502476e+01 3.2224733429957375e+01 -2.9635066013314315e-01 -6.9527657045017621e-02 -7.7950816663138744e-02 -2.8186208548386094e-01 -4.9800026250931134e-05 -4.2245550252740387e+01 -1.0625764843955221e-01 1.4465684308497893e-02 3.9491334580558529e-01 -1.4522309852063540e+00 3.5447000989273015e+01 4.8464330256050744e+01 -1.4685526348263878e+00 1.1129693673365670e+00 -1.9481286923860353e-01 -9.9071511889633257e-02 1.1513877353125538e-02 6.0625309526221827e+00 -1.5049361618049992e-01 1.4990621510323959e-01 -3.4765178592356616e-02 -9.4188801538280131e-02 3.2278970743529499e+01 -2.9061290026242588e+01 -4.8249836399918422e-03 -1.6912175161742571e-01 -8.1693310916461717e-02 4.2886312558402737e-02 2.1294111135492594e-02 5.9841879458715486e+00 8.2511456388800752e-02 1.1726296957185454e-01 -8.2775373132464691e-02 1.3377496703424185e-01 2.2738761321641505e+01 4.2965263316188647e+01 -4.1756258568751647e-02 -2.2125456389621379e-02 2.5734477916443188e-01 -1.3306622517194289e-01 2.0595300236166361e-02 -5.9918118106216411e+01 -1.1899164120108738e-01 -3.0887436003033819e-01 6.0374563702345152e-01 -4.5859761104219748e-01 -8.4135815203822744e+01 -2.3163507544926759e+01 -6.7986076318138045e-01 -1.9910857578183006e+00 -6.4997166510236726e-01 1.3040887618746727e-01 8.6868247521789066e-02 -2.2687092054883280e+00 -4.4515153903899353e-02 -2.2511985697756670e-03 -8.1802050446901975e-02 6.1556636721293023e-02 -6.7001069316722464e+01 4.1446532985796964e+01 -1.8439931684828359e-01 -9.7531286095503356e-01 -8.6317952717634039e-01 -1.4979414952651982e-01 -1.6888145454430348e-02 -9.0844365290074762e+01 -2.2232044675816934e-01 -6.2725874211251420e-01 1.8889003289393329e+00 -2.3718832931788816e+00 -5.8574709444426958e+01 -6.8485827038229905e+00 -3.8768720229438536e-01 3.7965593042588891e-01 1.7037954980203329e-01 3.8434362190039609e-02 -2.8163091442664850e-01 -2.2786280873977141e-01 -4.7384625010081352e-02 -2.4514633834880770e-01 8.9816897045263216e-02 -3.8911946796235625e-01 1.0988957933579995e+02 -1.0355174090383977e+02 
      </Row>
      <Row Index="13">
        -3.9194634176410170e-01 2.3363156824044751e+00 -9.1512107016136296e-02 6.7647974401933209e-02 1.4155745070469766e-01 7.4961610300556203e-02 -4.2135122712456727e+00 -2.2093209235301871e-02 -1.0074565187291998e-02 5.7006873871846109e-02 1.3138091889875625e-01 8.3016495658923162e-01 -7.4547878654576571e-02 1.8400924474722142e+01 8.0219277234454045e-02 3.3983574495061697e-01 2.5203640920648585e-01 -2.8306901374950050e-01 1.0198072112720041e+01 -1.3349477378359317e-01 -8.8374806141085477e-02 7.7980283125188066e-01 7.9927944886128643e-02 9.4929721265545730e-01 1.6655284717416918e-01 -5.9167524173721304e+00 -3.5843419589118997e-01 -8.8930350246521100e-02 1.3116560882755796e-01 -1.6789535282539188e-02 1.4054334875591472e+00 -2.0619030218618037e-02 -3.6691813588534260e-02 1.0588737676442939e-01 1.8614422540453912e-01 -6.1651943807355281e+00 -5.6338147572205344e-02 2.0016535554095753e+00 1.6256313581846432e-01 6.7269395287780753e-02 -9.9170815077513907e-02 2.3662660092388474e-02 1.7384067546681763e+00 6.7734296077964946e-03 1.8953792571650308e-02 -2.7473457434036116e-02 1.5301965080183777e-02 1.8446247754036449e+00 -7.2560727323176066e-01 1.5683921663312503e+00 -6.8528691724330182e-02 2.6174412677964873e-02 6.9080795736279538e-02 7.8944998845717398e-03 -2.6240633923590106e+00 6.5793743198945265e-03 -1.2354862971629410e-02 -1.4331584654013366e-02 5.3888645874963004e-02 2.9200063021962706e+00 -1.3062532937556576e-01 4.5210783051062489e+00 3.6214565800878634e-01 1.6683451915171316e-01 -3.5778162076605557e-02 1.1378434116654387e-02 1.7524905223314136e+00 5.0288840328702358e-02 1.3318885058338323e-02 -1.6038339513755265e-01 1.7351951291668888e-02 -2.7208054943600022e+00 -4.2136360433578846e+00 2.9951154903726103e+00 -3.5481299725085469e-01 8.8514207282524038e-01 3.4158461474666613e-02 9.0517866208560405e-01 3.0854871065979594e-01 -3.6299862112010181e-02 2.3883399020156576e-01 3.4870961829269881e-01 2.4845514263201474e-03 -2.1828535711275179e+00 -4.9673741628331385e+00 1.3303984261669481e+01 1.8453179439589945e-01 1.3521685567493640e+00 3.5680399940951224e-01 7.1001535949010486e-01 6.9994031865522430e+00 -1.4780074757218742e-01 1.2815082799924937e-01 1.0381868867896791e+00 3.9424996448208305e-01 -1.1473919913749768e+01 -5.6154819274267409e-02 3.9369008151296142e-01 -9.4950086172760795e-02 -9.4114597544729228e-02 -7.0747656913354773e-02 -4.3343637989218420e-01 -3.3089114942099415e-02 4.3972274736995193e-02 1.1567928578529934e-02 -2.8970293467527775e-01 -5.3863592999666587e-02 9.2604420503697256e+00 -8.8799498106019570e+00 
      </Row>
      <Row Index="14">
        1.3366160041474795e-01 -4.8085100031364369e-01 2.2555869351782609e-01 -5.5715614645172523e-02 -1.2425608426322607e-01 3.6968530012819649e-03 3.1888744826510913e+00 2.7613298944763245e-03 -2.4647355430303469e-02 7.6204257779483595e-03 -2.0962333068939820e-01 -3.0530156358421090e-01 2.6104602365342500e-01 8.0219277499069541e-02 2.1757534030875720e+00 -1.4885844491567539e-02 2.3321365563382288e-01 1.7835409782748481e-02 -4.0127907840308774e+00 2.5870192827929260e-02 1.0705226067707768e-03 1.7939240655789328e-02 -1.6578098571249275e-01 5.1705098326222476e+00 6.7050995886238285e-01 -2.5303546066948357e-01 2.7948483937937829e-01 3.1138780289881002e-01 -4.3773853524153604e-02 8.2712548518835763e-03 3.5812156394788530e-01 -3.3353512420252157e-03 -2.6613160303283982e-02 -1.4956515687651883e-03 -8.5885244725826315e-02 3.4558801942710602e+00 8.2655112137166498e-01 -3.6870834006094810e-01 3.3716237747039224e-01 -1.1766088345341252e-01 3.5508099664667725e-02 -9.8915926572189748e-04 -4.1769833307921544e-01 1.2547122966817190e-03 1.7310331087023387e-02 3.7403325845767811e-02 1.0041957880087615e-01 4.5757407695564325e+00 -5.2342801004331285e-01 6.9911016219066369e-03 7.6676816433682626e-02 -3.0731104761400174e-02 -6.5568203074432410e-02 1.3456607522834515e-03 1.9690044947293679e+00 -8.9348614400464044e-05 -9.8312528613895139e-03 -1.5888917096053556e-03 -3.7581468478329327e-03 7.5832476330879217e-01 3.5441439171791733e-01 -6.2826440920765947e-02 -2.1794195319797702e-01 -1.1534481727920751e-01 1.7712002235555618e-01 -2.2497901789968744e-03 -5.8121671378563988e-01 1.4667511265356006e-02 1.2555197560458744e-02 7.6679681828251299e-03 8.6357285521687990e-03 -1.2383263850146680e+00 -3.3135881207884279e+00 1.7423904969124604e-02 1.6060582327939432e-01 2.1393432499570775e-01 -2.9387532710361049e-02 2.1181631596419309e-01 -2.9425849856757336e-01 5.5466327649542249e-02 2.7361299754598736e-02 2.1180314253503821e-01 -1.0127320431053333e-01 -8.5218974949380200e-01 -2.6781086433064112e+00 2.1680608050702421e-01 1.9433436164976512e+00 3.6868309297945395e-01 2.9185693675386037e-01 2.3666118882895323e-01 -9.4965618174571631e-01 8.8929416846914966e-02 -4.7624208946195901e-03 2.4949964602329380e-01 -2.9878414441178003e-01 7.7886578572774550e+00 -1.6607678814893903e-01 -2.3231744937590959e-01 -1.2935051541258635e-01 9.3511554799616495e-02 6.6139732833490200e-02 2.1637635543415357e-02 2.0382092618811458e-02 -3.2508419747383499e-03 3.5792718199129277e-04 2.3741702351697098e-02 1.8773100670249890e-01 1.0942047160739852e+00 -1.0650150376750576e+00 
      </Row>
      <Row Index="15">
        8.8948632995693236e-02 5.7871997472253867e-01 -9.0802349037413632e-02 2.3128884235794933e-01 3.5895792930058318e-02 -9.5671007137162253e-03 -1.3282282335759275e+00 4.7940792742107115e-04 3.7786159244125372e-02 -5.8407268999788486e-02 1.0522981265759235e-02 1.3277209952631881e+00 -1.6091342267674813e-01 3.3983574526973825e-01 -1.4885844358731609e-02 5.9699467962687724e-01 7.1595281495103968e-02 -6.0218345417713579e-02 1.8092161706020731e+00 -2.2133813020929406e-02 -1.0209556687631330e-01 6.9545970585314337e-02 -1.9252459905387976e-02 9.5903172482331556e-01 -3.0334252128766104e-01 4.2878537660701710e-01 -7.7490070172627601e-02 -2.5317236899988993e-01 7.2444227094913383e-02 9.0029647252712220e-03 -4.3500197138364238e-01 2.1037041218256013e-03 4.8362036394697314e-03 6.7024939325873389e-02 -5.9089054632713300e-03 7.9701396210846553e-01 6.0785900660675907e-02 4.9136370368250937e-01 3.5724992866147776e-02 1.9946968827934342e-01 -2.2618791624154255e-02 -7.6142613086355327e-03 -2.0509448063603486e-01 -2.3602299399771362e-03 4.3477552016318380e-02 -3.7935139399320215e-02 -2.4115602198584440e-03 -4.4113730844401289e-02 -2.9029917030201169e-01 2.9646925731685769e-01 -5.1423210678819720e-02 1.8464382477243702e-01 2.9740505042935801e-02 -4.8030735143688042e-03 -3.4720437636849866e-01 -2.7305995419162343e-03 3.8795542132859170e-02 -2.6180986719604910e-02 6.9488887284592238e-03 -1.4486657794677740e+00 5.3496633234651814e-01 2.4165896096062589e-01 -1.5317784770860543e-02 1.0285203508181591e-01 -5.5827559769972078e-02 -4.7246739001042936e-03 2.0449661187367729e-01 -8.3651444850111958e-03 -2.2124138028987057e-02 -5.5283181636003511e-03 2.1932757936831526e-02 2.7061248647430576e+00 -3.6872585704839156e-01 2.8683823218639770e-01 -1.2779583953727991e-01 -9.1285572214776650e-02 1.3792493709698112e-02 5.9595857382408871e-02 8.3016015405136367e-02 -3.0638194691477169e-03 -8.1894927573331298e-03 -2.7676447214474056e-02 -2.4278614291119435e-01 1.8387614739772544e+00 -6.6407113630822834e-01 2.6284509186164140e-01 -1.1927992374405999e-01 3.0320564859323684e-01 8.7160982492504868e-02 3.1776118636764532e-03 2.9475702106568313e-01 -3.2481637093932619e-02 -7.4693934045599902e-02 3.8069310162704983e-03 2.4929214887285300e-01 5.4382688810457935e+00 -4.5489467521603391e-03 3.2405796557812355e-01 -7.8706786290320213e-02 -1.6539705618547504e-01 -2.5676080157279780e-02 -7.3930986207511928e-02 -5.5070886082427247e-03 7.1803540005346694e-03 -4.1042824061737676e-02 -6.3050260909071395e-03 7.3626685894923882e-03 -3.5282775477267818e+00 3.7337760820829753e+00 
      </Row>
      <Row Index="16">
        -8.0458554611226779e-02 -1.4312022676739744e-01 5.8221379900582175e-02 -3.9819943042223388e-02 -1.0303698202856065e-02 1.3816201946317176e-02 -2.7799291678171273e-01 7.6759129821558675e-04 -2.2453228581953418e-02 3.0942393068718300e-02 -7.2106605247760136e-02 9.1715881747191030e-02 1.6235172927045488e-01 2.5203640911922776e-01 2.3321365556467336e-01 7.1595281454064866e-02 3.6283069365691956e-01 -1.5675747016905706e-02 5.5300012764053559e+00 -2.9853129138836976e-02 6.6339519253573696e-03 4.1349734836858915e-02 -1.8190218793002089e-02 4.0078959545709640e+00 -2.7464899339301740e-01 -3.5268579313398385e-02 1.1886992115567094e-01 1.2560110493133153e-01 -3.1922754920589339e-02 6.1355094782695090e-03 -2.3299262365688256e-01 3.1446033207182126e-03 -2.4297338737550980e-02 2.2736816623354208e-02 3.3282879358222106e-02 -3.4500455680512943e-01 -9.8181966722563629e-02 -1.4436677218145633e-01 1.3694245322828758e-02 -7.0456288496405506e-02 -2.5331921823976700e-03 -1.9852973397981892e-03 1.5565192714075238e-01 1.3703520597536235e-03 -2.2415160441060511e-03 -4.9077773999272011e-03 7.7159486823781265e-03 9.8354446334269596e-01 -5.2584913128220445e-02 9.1659921019981994e-03 9.2607691561795713e-03 -3.4465446492224716e-02 -2.1287893959088082e-03 2.8869520593023347e-03 -2.7932961850936300e-01 -1.3341649994407234e-03 -1.2367474950652380e-02 9.8689719936303853e-03 2.4214047386621473e-02 4.6283956732531806e-01 -4.6869036605931502e-02 -8.1314989939379245e-02 -2.6383846583700965e-02 -6.7137744086208567e-02 2.6253826333988123e-02 -5.6399369009193503e-03 -1.2791732687654367e-01 6.9453415495720240e-03 2.5959519951822756e-02 -3.1771015242065645e-02 -5.3028992705114741e-03 -4.9580544903700741e-01 -1.1997675319231518e+00 1.7729053535510603e-02 5.8460899747838524e-02 1.0492878427924662e-01 -4.3717569246148318e-03 5.2726130069601543e-02 1.0915921043238241e-01 -9.1436104089881324e-04 4.1432138846409089e-02 5.8353053000703758e-02 -1.7089419621047625e-03 -5.2804649218052346e-01 -1.2354799733313309e+00 2.6509128666887172e-01 3.1493072777429126e-01 2.4463414346752460e-01 3.2769842359823592e-01 5.1111250821855941e-02 4.4368905343524805e+00 -2.0153736943148291e-02 2.6973862789362951e-02 1.1903107537517493e-01 -3.3721120653664338e-02 1.2512722729459007e+00 -1.8284690996958758e-02 -1.1659491211954527e-01 -3.1251475889650639e-02 4.3946965221057600e-02 2.3917007414573956e-03 -2.4644082111850540e-02 -2.5548474389420037e-03 1.9276570895443968e-03 1.1889057278474325e-02 -1.9426629154957152e-02 6.7270385978497965e-02 2.1887874626598700e+00 -2.2131672687027257e+00 
      </Row>
      <Row Index="17">
        -7.9372130955130113e-02 -3.0976986152616348e-01 4.3369515019377337e-02 8.1278204959200871e-03 2.0950778299085177e-03 -1.6190575773722855e-02 4.8243306219098120e-01 5.7788020080185801e-04 5.1756726726781659e-03 7.9017972937010406e-02 -2.4002024587011839e-02 6.4397852020510959e-01 -1.7083974563494936e-01 -2.8306901361179371e-01 1.7835409871431465e-02 -6.0218345368224423e-02 -1.5675747014411136e-02 1.7470645888045980e-01 -3.9136986109251054e-01 6.0761177793387374e-03 3.2073988345341239e-02 -2.7563712606058099e-01 5.2339669780561593e-02 -1.4133617250438926e+00 -1.0436930880252229e-01 -2.0879906507650547e-01 1.7116115380509625e-02 -1.0579300185882635e-02 -9.8053545256395792e-03 1.7159009600435780e-02 2.4279896934926604e-01 -1.9325181746325702e-03 2.7476846046496301e-03 -2.4501589889003170e-02 3.8523156116911698e-02 -2.4672161617957755e-01 -1.8852624866224232e-01 -1.9084656250561238e-01 4.3855096437158186e-03 -1.2498244403879255e-02 9.5447000153967565e-03 -6.7791009607005076e-03 -2.2580998032344723e-01 1.0530168795912444e-03 7.1314667703277386e-03 5.5454826827109657e-02 1.0796547270636836e-02 4.5399163294496248e-01 5.3026112706703016e-02 -1.2453078941507556e-01 2.2229636153900445e-02 -2.2649208163039707e-03 6.9892897900598156e-04 -2.2027179098229482e-03 1.8328722721208082e-01 2.0991850302998216e-03 5.1983625179653154e-03 1.7228011790727967e-02 4.5214142334515373e-03 -3.2151428299766849e-01 -1.5278092903447393e-01 -6.7599988625949181e-02 8.7759458888455044e-03 1.0921715962002681e-02 2.1237771467615019e-02 -9.6702573264172663e-03 -2.4040992732337063e-02 8.8395965948602625e-04 -3.1622132273871253e-03 8.9576446494202197e-02 1.4397558421784825e-02 2.0229442458129454e+00 -1.2467649614209153e-01 -7.0569345388280261e-02 2.2565762517060078e-02 8.5994227589472505e-02 -3.5756842141146389e-04 -1.7699106205062537e-01 -3.5790980988972376e-02 3.2524653965043996e-03 4.6004708173509514e-03 1.1823107798693373e-01 6.2509631797739551e-02 1.0615506559943242e+00 -3.5559014342066431e-01 -1.7515167506775337e-01 7.7736658541946127e-02 3.0677059826210412e-02 -2.1545070522160925e-03 -3.1849010972844052e-02 3.5610988116761955e-01 8.6113118602841963e-03 3.8666930495143720e-02 -1.0496719863886783e-02 1.4825665626088197e-02 2.2480439597113064e+00 3.0545721360019332e-02 -1.4195989420531127e-01 1.8262535417273407e-02 6.1843480032291297e-03 2.8758078297921323e-03 2.4164161912583104e-01 5.1585586657682163e-03 -1.8023321445603466e-04 -4.8587035568615098e-03 1.8728747772576629e-01 3.7335121479997971e-02 -2.5900170628220263e+00 2.4412737371651674e+00 
      </Row>
      <Row Index="18">
        -1.4517137976890661e+01 -3.8554587625592376e+00 5.4651174133495513e+00 -1.5404803384854624e+00 1.0092203781731679e+00 3.4229734627304598e-01 -4.5248275377612373e+01 3.7980197352757483e-02 -5.8515874284665259e-01 1.0403467480848436e+00 1.3276526792816981e+00 -2.0415084089228003e+01 5.2403448388128595e+00 1.0198072101949947e+01 -4.0127907886194887e+00 1.8092161706499170e+00 5.5300012749686216e+00 -3.9136985951444336e-01 5.3847406697202973e+02 -1.8279009257739214e+00 -3.7136097711767746e-01 -8.5528641924871474e-01 4.5545610850354024e-01 4.7361168131869817e+01 -3.3729273333034641e+01 -3.8312086402945624e+00 6.3768607653716955e+00 2.1667545457477200e+00 9.5242192703986639e-01 5.4327771846008288e-02 1.4104684243709560e+01 4.8065469256608717e-01 -4.0108214123459129e-01 2.1764175938069694e-01 -4.0976719172314091e-01 3.6978766281223443e+01 -2.6254822431910725e+01 -6.2765864024404436e+00 -1.0685219542524163e+00 -1.8893551428316187e+00 -6.4456107251317007e-01 -1.6155772960312731e-01 3.0611100194248138e+01 5.1244479352230282e-02 -6.0695987191752443e-01 -4.0552162289277649e-01 -9.6123927142241428e-01 -2.8011680049821734e+00 1.1387173307929782e+01 -3.8721288083615946e+00 -7.6536448766955889e-01 -1.5151436874497479e+00 6.1687417425921454e-01 1.2605543534832442e-01 -6.1389627514708437e+01 -8.9756518751698877e-02 -2.9968198957766778e-01 5.6542484565639883e-01 2.6483331902682039e-01 3.5107605445024092e+01 -2.2828149636892569e+01 -1.5467212476176400e+00 -4.7267345049995058e-01 -1.6321413118184780e+00 -1.0845408494553883e+00 -2.8008242453231452e-01 6.9120080607443754e+01 -6.9405457375135204e-02 6.3527090517565332e-01 -1.1086551416185682e+00 1.8430178630483240e-02 -6.2357844246980733e+01 -5.6607214373590566e+01 -1.0183860524778083e+00 5.5515180201574168e+00 6.6972721579066175e-01 6.8910756597844403e-02 1.5493295333392914e+00 1.1563433332541717e+01 1.8303451824765204e-01 3.0371492476031448e-01 1.3621140047648728e-01 8.2459900852861279e-01 -7.5292408848763444e+00 -7.4785598177450737e+01 1.0641531189499688e+01 3.1607157934788610e+00 3.7719569240511719e+00 5.3329612170272913e+00 1.2804593437146874e+00 5.1058565441831939e+02 -1.1207833287990823e+00 -4.3941656328314904e-01 -8.5680591781290949e-02 1.8945809561320104e-01 -1.0790145443403918e+02 3.0873232801612573e+00 -3.4595275112527317e+00 1.1327079480545199e+00 1.1521882320839865e+00 -4.0905122704536456e-01 -4.8183264174045348e-01 -3.8391267727665040e-01 -7.0776608992387247e-04 4.8335186758870330e-01 -4.6118626955296838e-01 -1.2920225032058505e+00 1.2494921777218823e+02 -1.3096757458766353e+02 
      </Row>
      <Row Index="19">
        -1.4400991671615815e-01 3.5771673166813400e-02 7.0604544878722503e-04 1.8106799996624210e-02 -4.8904137251584981e-03 -6.8784566863665571e-03 2.6626305980938292e-01 9.6767442213988794e-03 2.9217694438220974e-03 -8.3927979835835415e-03 -1.0015024646466753e-02 5.0456841763798366e-01 -4.1350552256995562e-02 -1.3349477365022722e-01 2.5870192889462566e-02 -2.2133813012410519e-02 -2.9853129123942779e-02 6.0761177622884657e-03 -1.8279009260678973e+00 4.7070921438453303e-02 -5.8684200406546039e-04 -2.6684692328476787e-02 1.2325331622953684e-02 -6.7521670977752635e-01 -6.8781807035653370e-02 6.5330110639145733e-03 1.8645585689783223e-02 -1.9148797701196658e-02 5.4107705219748857e-03 -1.1148618165966915e-03 2.9516687619159709e-01 3.8891123319660516e-03 2.3900652521205157e-03 -6.2369681346682634e-03 8.9520762312095825e-03 -1.3535062196056380e-02 -1.0205991420411920e-01 6.3037421783519676e-02 -1.7056542568170130e-02 1.4679946372616826e-02 6.7758663357153637e-04 -2.9252010873695436e-03 -3.0959243644610979e-01 4.4141200805868988e-03 4.7959684675283939e-03 -4.8743107868771257e-04 4.5381330533942332e-03 -3.3917282862239517e-01 1.3053563107009497e-01 3.4448671575773915e-02 5.1267148897721770e-03 1.2909145924987660e-02 -1.9953666000009575e-03 4.9871882153198262e-04 2.7271629695610700e-01 -3.5756902678123481e-03 7.1217816122911377e-03 1.6550334449132245e-03 -2.1242980835225467e-03 -4.9464513589828130e-01 -2.0602906415208749e-01 5.0576330180265749e-02 -1.2321012158973056e-02 2.1127698867856259e-02 5.4884865960079243e-03 2.4739693493681294e-03 1.9090091357603267e-01 -1.0700343244173094e-02 -1.5310832280434485e-02 2.5540927205769552e-02 9.9491049347298632e-03 1.1292443348542385e+00 3.6150156714935722e-01 1.1893736451261461e-02 3.9584174498289854e-02 6.3317066092402480e-03 -1.5971953395192973e-03 -1.1978390994451455e-02 -9.7244298171997978e-02 -4.6298913273285815e-04 -6.5349093439456309e-04 -6.2650453372747458e-03 -4.3927392126245027e-03 4.6538574276701183e-01 2.4023906478500390e-01 -1.1698524023511858e-01 1.1078589354084400e-02 -1.5365547544420419e-02 -2.0382308308902822e-02 -1.1050069488000091e-02 -9.2844757228241881e-01 4.1842971413938231e-02 -9.0823802800249070e-03 -1.9714650215660122e-02 2.6120166899518960e-02 1.6840507380446228e+00 1.4620200357688955e-02 4.2873023851434905e-02 -1.2495770798008217e-02 -9.5424323041652329e-03 1.7162203658688453e-03 1.3349487486693068e-02 4.8331393482669033e-03 -1.0590273831370504e-02 -9.0095963198224549e-03 2.1440344450019428e-02 1.2065201471372827e-02 -1.7482316877334272e+00 1.7654558322876397e+00 
      </Row>
      <Row Index="20">
        -4.9593501945705021e-01 -3.1274276997937989e-01 3.6890009614725938e-02 -1.5177280971380422e-01 3.2920520278882301e-03 4.8011481699041479e-05 4.0060728386776490e-01 8.6681451270368762e-03 -3.0708001837042524e-02 3.9077069998497388e-02 -2.0373921720610255e-02 -6.0932764670407469e-01 -4.0432825353515522e-01 -8.8374806391584571e-02 1.0705225195348214e-03 -1.0209556685798143e-01 6.6339518890809607e-03 3.2073988388569154e-02 -3.7136097769467780e-01 -5.8684198990438898e-04 1.7800395491862625e-01 -1.2371334719280619e-01 3.4373514329228527e-02 -7.9014963429202112e-01 -9.0864049396158530e-01 -2.1053357295974218e-01 1.9411727646260923e-02 1.5983353679621912e-01 -9.6222918582862908e-03 -1.2366327694884145e-03 5.9688996599349065e-02 6.2786650713309794e-03 -1.8277903421465094e-02 -3.4988426859353099e-02 9.0527239689762729e-03 -2.0792030011934237e-01 -1.4973558853394024e+00 -2.2291507092450047e-01 9.8806322140013170e-03 -1.0758243526969480e-01 1.3053443659600816e-03 -1.5296003087576400e-03 -3.6751270268678127e-01 5.8855277695604100e-03 -4.5560533426384317e-02 2.5575436600294363e-02 5.8286568081022949e-03 1.8885866895288927e-01 5.5701698370371067e-01 -1.6243295723961637e-01 7.3462744162023919e-03 -1.1703032952876444e-01 -1.9459987755933786e-03 -6.5154364278697629e-04 -1.6148785326225257e-01 -2.9845026102952588e-03 -5.4153775410555195e-02 3.4681601610622087e-02 3.3314504194663641e-03 9.4252460714506014e-01 -9.1327957294097795e-01 -1.2471306429142714e-01 -2.5319456905383730e-02 -7.3853042413124556e-02 -4.9026832940461118e-03 -5.5046691419681428e-04 2.3723758107499826e-02 -7.1708293434259319e-03 9.6804758877069727e-02 -3.2549973578289995e-02 3.3091914369949571e-04 -1.1632667044114089e+00 -4.5198870017066906e-03 -1.4968433088733946e-01 3.9228527463994189e-03 6.6543565074315025e-02 -1.0051622323494994e-03 -6.4513747447664749e-02 -3.9356550538104607e-02 3.2906803918447526e-03 2.1073676049777643e-02 5.5840071060417232e-02 8.9255320973415514e-02 -5.8403403474858351e-01 -7.3523317892292850e-01 -2.8652497599783278e-02 3.4578231477872506e-02 6.9143816122222340e-02 -4.5171203661015236e-03 -3.8001105969317134e-02 9.8560315715915614e-02 5.9767493330203265e-03 2.2588936926751718e-01 -9.8008162805948901e-02 -6.7168864494521863e-02 -3.7488752110141110e+00 9.9483695379934012e-02 -1.4757002358229454e-01 -2.5163541653242652e-02 8.0163213482603690e-02 7.9962830988694784e-05 5.0294128780276726e-02 5.0491452266969977e-03 -9.5345540895345089e-03 7.3306811238768699e-02 1.1020316171876057e-02 2.1900002467752984e-02 2.0989079966648365e+00 -2.2845030780453937e+00 
      </Row>
      <Row Index="21">
        8.8814376260506500e-01 8.8023383863913196e-01 -1.6864039996078659e-01 -5.1772222156449832e-03 8.0784649808551823e-03 4.8101422672130786e-02 -1.0390460636576500e+00 -1.0908584935850126e-02 3.0238838983221359e-02 -5.6165183466810320e-02 3.6172739744629201e-02 6.3796274169639944e-01 9.4784751021732672e-01 7.7980283184615473e-01 1.7939240750939358e-02 6.9545970406593854e-02 4.1349734961896936e-02 -2.7563712622538972e-01 -8.5528641317547272e-01 -2.6684692420241560e-02 -1.2371334709051776e-01 1.0111646637769003e+00 -1.6172810109575764e-01 5.9931407204159770e+00 1.2481363688344134e+00 6.1453423143859220e-01 -1.5177343618019795e-01 4.9918858308523842e-02 5.5689920913700591e-03 -2.2725023655673120e-02 -8.6711548950249240e-01 -1.0203477404903450e-02 -2.3486277391713679e-02 1.0376654601698151e-01 -6.7032351424432923e-02 3.7339367876807472e-01 1.7797698632608103e+00 5.9227507157174841e-01 1.6084579559219492e-02 5.4167602415041927e-02 -2.4326224295577958e-02 2.9605032144355524e-02 5.4176025113406467e-01 -3.3872942826218416e-03 4.2613683890655368e-02 -2.7344354287110940e-02 -2.7684579838052059e-02 -1.3014300509748864e+00 -9.7595126272600963e-01 3.6657106259644934e-01 -9.2920666306766542e-02 -8.7005119137343462e-04 4.5937614758605506e-03 8.4941198391358195e-03 1.4287830120180534e-01 3.8963419929647358e-03 4.5690366615616547e-02 -4.1991670026841926e-02 -9.1117662927402421e-03 -2.0790045697567621e+00 1.5585628790596062e+00 2.2757063750441375e-01 9.8240745168531651e-02 1.0988335470650465e-01 -1.3520454470109300e-02 3.3065497516085993e-02 1.0475924541655690e-02 2.1930131167514973e-02 -1.0183904399522990e-01 -1.2001278462735954e-02 -5.3731672900187349e-02 9.0802227093621335e-01 -4.7565262990928003e-02 2.5348976856089855e-01 -1.7805428834535852e-01 -2.0098759410210831e-01 5.0708220412405310e-03 4.1099726943820425e-01 -4.4878042528806006e-02 -1.3125288684422363e-02 -1.3532855988126556e-02 -3.7179200011428448e-01 -1.2107247077122957e-01 8.0094888161147537e-01 1.3586630087274401e+00 5.0627631176447041e-01 -1.2119615166967856e-01 1.9041172038696930e-02 3.2791370195947689e-02 2.1530082926164526e-01 -2.4089619052606341e+00 -3.3422910100619638e-02 -2.2205867680636168e-01 5.9149443048507899e-01 -1.0568337613621526e-01 6.5013019441965101e+00 -1.6991831781031719e-01 3.4716422045106177e-01 -5.8427051966495523e-02 -1.8723354619088972e-02 -1.4072252037446392e-02 -4.4140440599502906e-01 -1.7994563030482628e-02 1.7647790608669257e-02 -6.8214974016810759e-02 -2.3919289893720330e-01 -6.4028123480096857e-02 -1.5287951198890664e+00 2.0060051733266717e+00 
      </Row>
      <Row Index="22">
        4.2841767747910653e-02 5.6409041197809984e-01 5.4022682537254271e-02 8.0687319197953883e-03 3.3063503725717838e-03 -7.8267607104141376e-03 2.4418821320885886e+00 5.7612985531091425e-03 2.4453889231483552e-03 4.8238423307186439e-02 -2.9900005693325937e-01 2.2716603350774651e+00 -6.4340237705642311e-01 7.9927945771487430e-02 -1.6578098536037608e-01 -1.9252459914169705e-02 -1.8190218676540550e-02 5.2339669640717491e-02 4.5545610891754951e-01 1.2325331595000516e-02 3.4373514284871468e-02 -1.6172810060734136e-01 4.7169739049037673e-01 -3.9295901322351394e+00 -1.1479483898800433e+00 2.5832337038806941e-01 3.0790086732876004e-02 -4.4712718584619095e-02 8.8969337139656723e-03 1.0915880001344251e-03 -1.5701335553421636e+00 1.2773026026347877e-02 9.2140183028000030e-03 -1.6947328826765272e-02 1.4250145314424836e-01 4.3850422534844675e+00 -1.1057630737050204e+00 5.4940741397149395e-01 2.8992476368330244e-03 -3.2768467365684728e-02 1.6199070465518162e-02 -6.7238939338138274e-03 -1.2328173207424697e+00 2.8416527606085892e-03 -5.3892638179830823e-03 1.6544736830844519e-02 6.2805055468516002e-02 1.2943065181316342e+00 4.7337444819587327e-01 3.4532423006294266e-01 2.6640187215439988e-02 -1.8284715472194207e-02 5.4894863268835081e-03 -3.2425851761580305e-03 3.0532954692862363e-01 7.2518026957055781e-03 -3.0616127816520938e-03 1.2861921261537979e-02 6.5327275935743501e-02 -3.5146938298821624e+00 -3.6511539955260153e-01 2.4574956669675885e-01 -5.1745528871032176e-02 9.2023358489329039e-03 -4.6757941812634193e-02 -1.6273484994700944e-03 -3.7532588740573963e-01 -1.2710188610658318e-02 1.1293002494415885e-02 3.4205259411804849e-02 2.6906394607282259e-02 8.2215897868185479e+00 2.4850788155259440e-01 2.2422670397186550e-01 4.0168431540568816e-02 -2.3257699701804892e-02 3.8978661759849010e-03 -5.3157066749207841e-03 -6.1592581210866415e-02 1.7855920880657020e-02 2.5869205483118628e-02 -8.1567290379557955e-02 2.3249417586536089e-01 3.4728894876243430e+00 -3.0408842052912677e-01 -6.6029039146788149e-02 -7.2846840767114729e-02 -4.8330571277974847e-02 -5.0360807029367169e-02 3.3732454882929294e-02 1.2988718350400581e+00 3.5395837940216432e-02 7.2025324161605245e-02 -1.8106396372560538e-01 9.2719787057300940e-02 8.6757126253568302e+00 6.8516706179980652e-02 3.1768019334291542e-01 -2.6597242877332566e-01 1.0564826206348951e-03 6.5128427129906349e-03 8.5037834920189681e-02 1.8535403330129822e-02 -1.0715284218813266e-02 1.0433855335435283e-02 8.5765788844469393e-02 3.6516427585432937e-01 -9.3683811196116302e+00 9.7146361162922812e+00 
      </Row>
      <Row Index="23">
        1.6550619386862376e+01 -3.4599517298047431e+00 8.6650150942471127e-01 8.8262699902163022e-01 1.5947706303528097e-01 4.4650751043935893e-01 5.3855439711881409e+01 1.1262814497224824e-01 -1.1270054927491055e-01 -1.3721645965978819e+00 -3.7175944775210610e+00 -7.2392508990649659e+01 3.5632673103732294e+01 9.4929717690683901e-01 5.1705098129269427e+00 9.5903171919154273e-01 4.0078959512850920e+00 -1.4133617217948506e+00 4.7361168320949098e+01 -6.7521671112366533e-01 -7.9014962789544740e-01 5.9931406895347230e+00 -3.9295901491350378e+00 1.0549645039355794e+03 3.7996763395004336e+01 8.6988116967770424e+00 1.3728524513653984e+00 1.5378169835841837e+00 -2.5104079383264803e+00 7.6585576561012753e-02 -1.3558785524887751e+01 -3.4656733844202225e-01 -3.5516802355694876e-01 8.5709815597823413e-01 3.1668555665850571e+00 1.0885275574558466e+02 6.0052762212057132e+01 -4.4784787786193192e+00 2.4841559412598144e+00 -5.2390193024439213e-01 8.4141386474948376e-01 1.8722681323691859e-01 -1.7077615924761631e+01 -3.5932654709187095e-01 6.2820384445716848e-01 -1.1907885399024460e+00 8.4429346446540876e-01 1.9675137388706207e+02 -3.6425316490045674e+01 -2.5544566105818376e+00 4.6506770597056812e-01 -1.2960681300479698e-02 -8.9993264599570466e-02 4.8431376855730297e-02 5.1910503668097803e+01 3.6431153015882956e-02 4.9148610545694982e-01 -8.3745340819000069e-01 1.2247315224885824e+00 -3.5667044473113492e+01 3.9060983148422906e+01 -4.7007465540664271e+00 -9.1293991270152919e-01 -8.9237740991353331e-01 7.5715147365082336e-01 3.5391187149776426e-01 -2.6504655531456510e+01 -4.2178512932557199e-02 -6.1890698016090184e-01 -3.1458921815203816e-01 -2.4591247269443639e-01 -6.1043637633801438e+01 -3.5729991945012108e+02 -3.8042706521382570e+00 -1.1244854207619079e+00 -4.4010299989803423e+00 -5.9961607696792374e-02 1.6749063009168079e+01 -2.5174549115198737e+01 1.6470835277250906e-01 -1.4738254726063702e+00 7.6615583429890588e-01 -3.4883862227956248e+00 -8.6444808922940865e+01 -2.9541817187128498e+02 6.0752707008614095e+00 7.8919858239437826e+00 -2.9295300670739186e+00 2.3242515146122784e+00 1.6242887087941821e+01 5.3979538598114004e+01 -6.9576194016680559e-01 -3.2488897532418708e+00 5.5435976294885263e+00 -2.3500448007091705e+00 1.6186183269407263e+02 -1.2033470169135647e+01 -1.3456300069533764e+00 -3.7483595632250442e+00 9.0623267800259777e-01 4.5278459274250255e-01 -2.4470344676053628e+00 6.3091525546049265e-01 -7.6434777525999476e-02 -7.6891467190881713e-01 -2.8975610561207681e+00 4.8893769621029612e+00 6.0360595397263489e+02 -5.9122473401947479e+02 
      </Row>
      <Row Index="24">
        1.4335644868802774e+01 -1.6767766308066712e-01 -1.4549358130133516e+00 1.1150241550552920e-01 -3.2438758240248422e-01 1.0875438248462745e-02 2.5242274967822214e+00 -5.0269781876887187e-02 2.0644341187695370e-01 -9.8521398219202860e-02 1.5740992165115131e-01 -2.9722029704837489e+01 3.2224733435265833e+01 1.6655284222360933e-01 6.7050995643916234e-01 -3.0334252204569090e-01 -2.7464899381868030e-01 -1.0436930823237735e-01 -3.3729273310153630e+01 -6.8781807195539418e-02 -9.0864049311491979e-01 1.2481363646432329e+00 -1.1479483919481481e+00 3.7996763388290759e+01 1.2608239062142481e+02 1.6589585981856771e+00 -1.0125065380238032e+01 1.1035001386240308e+00 3.3292026825628263e-01 3.0368819234937380e-02 1.7538180096328020e+02 -5.8857768775369923e-01 -2.6803531934298769e-01 -4.8125642683220016e-01 1.5729127765875370e+00 -9.2992178061838359e+01 5.6416250602862419e+01 -1.0082706904504448e+00 8.5999421501492179e-01 2.3937739537927882e-01 -1.4630222166306339e-01 4.2373741147166299e-02 1.0698795417760266e+01 -1.1595165708329117e-01 2.4759709008368591e-01 1.0856998478177621e-01 6.7242541490486474e-06 2.6035114010563120e+01 -2.6895708143755876e+01 1.0892024431086611e-01 4.7890319109550272e-01 4.2354585508456111e-01 -1.1849766638516712e-01 9.2926826164493465e-03 5.0827547476474475e+00 1.0147622896488429e-01 3.2688886096367886e-01 -3.0142947560792643e-01 -2.2021114989456692e-02 2.5854563947970746e+01 -4.1559889725070160e+00 2.7932210636208765e-01 4.2912301463558684e+00 -4.7900256616807058e-01 4.0338357706518124e-01 -2.2933353044635549e-02 -1.3399439796527031e+02 2.9014983507886122e-01 -4.8135215672414056e-01 1.0693918920436627e+00 -2.1343844498700153e+00 -2.9882738237238502e+01 -1.1686890817996694e+01 -4.2507661577019462e-01 9.3884038022850902e-01 -7.8850648777752896e-01 2.5421841218263880e-02 6.5604403625128549e-01 5.0851952763286157e-01 -9.7864201762779227e-02 -1.4001827921516535e-01 -6.4883647550373680e-02 -2.8874790217729362e-01 -7.0574946486172848e+01 7.5423275396842328e+01 1.5008717092758630e+00 -8.6107838751967378e+00 -8.1624514171527740e-01 2.9677414890010678e-01 5.8683913985200675e-01 1.2475504656005043e+01 -4.2073869095889216e-01 -1.4860702701081903e+00 1.7995681860844319e+00 -9.8738122966398034e-01 -6.0353967450778526e+01 -6.5195610312114693e+00 -3.2189130710165781e-01 8.7216456492816019e-01 -1.7653315717065032e-01 2.2353934208584850e-01 -2.1223197532870586e-01 -2.1023384009189480e-01 4.7696134952186935e-02 -5.3263086220572831e-01 2.1163436601906135e-01 -6.7239428439907933e-01 7.6330007639362790e+01 -7.0536538307924374e+01 
      </Row>
      <Row Index="25">
        -6.4853691774169420e-01 1.1542961547808432e+01 -9.1955110225141956e-01 9.7179299612727710e-01 7.7973918165257311e-02 1.9997776890136511e-02 2.4311672800922679e-01 1.5823807786778350e-02 4.4124124710936949e-02 -2.2308906278486237e-01 -3.3088290653368091e-01 3.0819796869629767e-01 -2.9635065716641917e-01 -5.9167524148615485e+00 -2.5303545961167434e-01 4.2878537677430512e-01 -3.5268579057291236e-02 -2.0879906541890483e-01 -3.8312086452165692e+00 6.5330110551784504e-03 -2.1053357321786106e-01 6.1453423304789978e-01 2.5832337081823198e-01 8.6988117257959132e+00 1.6589586021825626e+00 7.6666229251252020e+01 1.7568864157951114e-01 3.9615552376433305e-01 -4.7805236168720822e-01 1.2104747978459318e-01 3.5009204886709384e+01 -2.6024328329234075e-01 -2.1198864227872602e-01 3.8396542592401395e-01 1.3006988322910207e-01 -3.0437091190195289e+01 -8.7524384186326643e-01 7.9104841442313045e+00 1.7090650241789263e-01 5.9734598607582257e-01 2.7158392149431165e-02 2.4020987017781437e-02 2.4724142414852395e+00 3.8080966165590834e-02 1.0788770111364557e-01 -7.4700579603334052e-02 6.1650110030967653e-02 -1.7809449463384226e+00 -1.2362943108515370e+00 2.3851643690977653e+00 -2.9280141353475786e-02 6.5147164678254454e-01 7.9544672462731114e-02 -9.1955257237997905e-04 -7.7843263659932305e-01 -7.5044688164638274e-03 7.9672582139919332e-02 -1.3989066370424702e-01 1.6412184567843724e-01 -5.0454278872202849e+00 1.7766833728272141e-01 -2.9232330935607024e+01 1.1732344007269511e+00 -1.8083942348302995e-01 1.1492779041194794e+00 -5.2635544490161251e-02 -1.9128368376742905e+01 1.6036530672567667e-01 7.9018758686070015e-02 -2.8522423002822878e-01 -3.5253869341874539e-01 3.2446479943253046e+01 -2.7445094916443726e+00 1.0566579489201047e+00 9.7317346460955800e-02 -6.7093256122256957e+00 4.1042063197116091e-02 3.5793304615483246e-01 2.1194008594775013e+00 -1.0966748956537055e-01 -1.9512414413098572e-01 -5.9880635728660436e-01 5.6724825350870922e-02 1.0900646460642747e+01 -3.6122764814269459e+00 2.6152190158953637e+01 -1.7855114868882094e-01 -5.7141721121136131e+00 6.3831360875460508e-01 2.5409039831467328e-01 1.3715433259375160e+01 -1.9057567220620666e-01 -4.6208912874977009e-01 -1.7985065983500448e-01 -2.1456251684650218e-01 2.5719544638872200e+01 1.1839436877032157e-01 2.8729453748352332e+00 -1.8236539303078619e-01 -7.1517994362064008e-01 -6.9239220444723318e-02 -3.2044248771840955e-01 -4.9629568483149408e-02 -2.9987433236377183e-02 -1.3684258656076409e-01 -3.0497981747406516e-01 4.1618770614978612e-01 -2.7422961150504360e+01 2.9747137442069612e+01 
      </Row>
      <Row Index="26">
        9.9748426227961318e-02 8.0419787389331532e-02 2.2180338935463473e+00 -2.5209977072397044e-01 -5.1813878358364251e-01 -1.3293486325790535e-02 5.6808332754089861e+00 2.4085483676585737e-02 -2.9681846003923432e-02 -7.1145428936406380e-02 -6.5291642080644863e-02 -5.0047955666616017e+00 -6.9527662327733886e-02 -3.5843419736193027e-01 2.7948483883580377e-01 -7.7490070085921514e-02 1.1886992094144054e-01 1.7116115624552890e-02 6.3768607625312690e+00 1.8645585763492026e-02 1.9411727661495296e-02 -1.5177343684663913e-01 3.0790086902555913e-02 1.3728524165039344e+00 -1.0125065384545636e+01 1.7568864281063767e-01 6.5885758501128260e+00 4.1967258774041671e-02 -6.7249817321578242e-01 1.1074295674856642e-02 -1.5592903468539037e+01 1.5052749437877203e-01 1.2261527376388981e-01 -1.3816929896537426e-02 -1.7517678030187367e-01 1.0045092005634437e+01 -7.8657291265335516e-01 -3.3472859542962397e-01 -1.4765073378666784e+00 -2.2117184329729866e-01 -3.3815252325894107e-02 4.7648411122835910e-04 9.3392154881803435e-01 3.6926790884814244e-03 -7.4804189060767357e-02 1.4203594038986744e-01 -1.2044854595153254e-01 -6.8478150938462932e+00 5.2572059713676556e-01 1.7021523523362703e-01 5.9281680421505611e-01 -1.8677976350582240e-01 -2.6890082303008001e-01 -7.7268043124593716e-04 2.4911476077388977e+00 -1.8137166146296124e-02 -2.6039003539664537e-02 -1.9378823980155068e-02 -1.3144665423396873e-03 7.7515961281023920e+00 3.7989919918557979e+00 -3.1676432640961139e-01 -1.4449916639916771e+00 -1.1358346014836063e-01 7.7472086726641054e-01 -1.6519598933817894e-02 1.9667327431025207e+01 -5.0886544391403499e-02 1.9029884152526926e-02 -5.6779661066454344e-02 8.1067940022149593e-02 -1.6607416128686353e+01 -2.4583624194620413e-01 1.1821116722954628e-01 5.0002602857295697e+00 9.2921433989531968e-02 -1.4455712198662984e-01 -3.2172214530661852e-02 -2.2618727168180595e+00 3.7170823376271138e-02 -9.4660713101226129e-03 4.1085346977176446e-02 -1.3675261591533006e-01 -4.3134309186243627e+00 -4.7528559025882284e+00 -4.5325079759368236e-01 4.4409866656654629e+00 -2.2177949824159437e-02 -1.2823030484494513e-02 -3.1789825014854750e-02 1.0964639311206652e+01 1.6011537920987262e-01 1.2285119950451293e-01 -1.5191692919570909e-01 6.4214307306513785e-03 -1.0676855941314408e+01 1.5580880313971632e-01 -1.5590339405588191e-01 3.9494522064527027e-01 1.9833548472776613e-01 2.5705914544050545e-01 3.6304462929386716e-02 1.6163387971558207e-02 -2.3616945663537808e-02 4.0390746863517180e-02 1.9682744275207220e-02 -4.1597043512886261e-02 1.4569527804532759e+01 -1.4688721208695444e+01 
      </Row>
      <Row Index="27">
        9.2771067365401905e-01 -1.8300077987258305e+00 3.8655581153342594e-01 -8.3637378418017883e-01 -2.5542306924258584e-01 4.7299044540594203e-03 1.5133762091272729e+00 3.5541509820893172e-02 -9.4550265414522730e-02 1.6912017433623691e-01 -1.0623949254587473e-01 -2.9079212080139394e+00 -7.7950814480026720e-02 -8.8930350624650600e-02 3.1138780263146604e-01 -2.5317236913441205e-01 1.2560110491829315e-01 -1.0579300180272866e-02 2.1667545505740176e+00 -1.9148797747811239e-02 1.5983353692086333e-01 4.9918857851162776e-02 -4.4712718967161891e-02 1.5378169929320666e+00 1.1035001396481685e+00 3.9615552309053026e-01 4.1967259508492893e-02 3.3956933060415748e+00 2.8394569514870299e-01 7.5398425053478088e-02 2.0335517726966728e+01 -1.7798380622149942e-01 -2.7706331730692541e-01 2.0786511390491666e-01 -3.4506505870012139e-02 -2.1314714292592782e+00 -1.7377982297102790e-01 -1.4916509108406899e+00 -6.4749800777690325e-03 -5.5812075079644785e-01 1.1132294293361156e-01 -5.1216592456126975e-04 -1.1938531410305586e-01 6.0216810990952677e-03 -1.3106953151397224e-01 1.7200360606806658e-01 -8.2370079867217783e-03 1.4058357537142001e+00 3.4022605217646812e-01 -6.2776357451275544e-01 8.6092771977170468e-02 -5.9241454668971449e-01 -1.4204977146786035e-01 9.5871792136882454e-04 2.4280773185125595e+00 -2.6056119849847903e-02 -1.2233654678376193e-01 1.1851060134177657e-01 -2.7351899545095648e-02 3.2123401956450834e+00 -7.9828948849954962e-01 -1.5724668998482230e+00 6.1907074748059898e-02 -1.4867150241178697e+00 -7.9284910380130302e-02 -5.6593110153312379e-02 -1.1254695867882024e+01 7.9336281072676929e-02 2.3251110770062405e-01 -4.6556919202467267e-02 -4.7416564479496215e-02 -5.9781482042875158e+00 -6.9957718880237929e-01 -9.3980431157236666e-01 4.8861573458720109e-01 2.7171492946093900e-01 -7.5243184570628507e-02 5.4079930348456012e-02 -7.1645499732647622e-01 2.2415866390055057e-02 1.9420419705762602e-02 6.0735043049376387e-02 -1.2625587198324659e-01 -3.6801725376390095e+00 6.5421024347548240e-01 7.2992299690577056e-01 4.2487632343036524e-01 1.8853250816138643e+00 2.5068355869676506e-01 6.9223414864092128e-02 1.3272839628986528e+01 -7.4076263403482862e-02 4.5466527603130052e-03 4.8488865621063099e-01 -8.0189167390282812e-02 -8.9110094898561485e+00 -3.6348801810027878e-02 -9.0391320946164777e-01 -9.7955963091780507e-02 5.2255579702448141e-01 1.0226347854432712e-01 -6.9621574497542582e-03 7.7834215225143152e-03 -4.4873948246056755e-02 1.5319471539588481e-01 1.6698597620011668e-01 -4.1315046589895654e-03 8.0532265460861083e+00 -8.6325923380472620e+00 
      </Row>
      <Row Index="28">
        -3.8659038063080686e-01 1.1612218815205999e-01 -9.8630776518955326e-02 8.2557155031427645e-02 2.1508153577235506e-01 1.0411494004554597e-03 -1.5785427801232288e-01 2.5211324325450407e-03 1.3238370116552489e-02 -3.4803061113376908e-02 7.1386533864759016e-02 2.3140603720865260e-01 -2.8186208617575892e-01 1.3116560873095295e-01 -4.3773853547827646e-02 7.2444227118116114e-02 -3.1922754940322401e-02 -9.8053545036702362e-03 9.5242192619696908e-01 5.4107705341126626e-03 -9.6222918708059289e-03 5.5689920786344063e-03 8.8969337727515807e-03 -2.5104079426092518e+00 3.3292026777195272e-01 -4.7805236150323971e-01 -6.7249817329354111e-01 2.8394569507351863e-01 1.2840687725192870e+00 6.1118306346920823e-03 9.0836076946097304e+00 -5.4235038041085225e-02 -9.3584695201881576e-03 3.9407745246083405e-03 -3.1374168076272096e-01 6.0689155408735154e+00 -6.2737361930501834e-01 9.9160107245779727e-02 8.5382398370043688e-02 1.8352322928026599e-01 -1.1610800307762759e-01 -3.3821491361346601e-04 5.8459198752711927e-01 -1.4072814182952698e-04 5.6849464623246818e-03 -2.3332966645333124e-02 6.0700230411523393e-03 1.8258239339138527e-01 2.5005749781856712e-01 -7.3894597860828526e-02 -2.0485706201075260e-02 6.5401116799570280e-02 1.3060878622202754e-01 2.6541054695263010e-04 -1.7681550663921297e+00 3.1096809067321374e-04 1.5344953988812131e-02 -1.8408263855019820e-02 1.3996668172836735e-02 -1.7767307042063294e+00 -6.8795570952584084e-01 5.6943748387277537e-01 4.9240583885350020e-02 -1.4961840322176861e-01 -7.3444534184511512e-01 -1.1570301847898096e-03 -2.5979529100805396e+00 3.3282053606369280e-02 1.3876877010874753e-02 -2.7242475945696260e-02 2.0318720315412830e-01 -2.0383502877299593e+00 2.2101027553675229e-01 -1.2976010286380291e-02 -5.5649453942030663e-02 -8.4870841199807492e-02 7.2510197298066015e-02 1.5397460356997742e-02 6.8960312049485539e-01 -4.1675653962453124e-03 1.4162947353999721e-02 -2.3918956480346747e-02 1.3253782031094591e-02 2.5643843780574116e-01 2.7774264835467077e-02 1.0367148223681966e-01 -8.3148688065456311e-01 9.0315813202307693e-02 5.6849091827216003e-01 1.1999963691682280e-02 6.0856357782582124e+00 -1.7360178298646549e-02 2.2249210642030275e-02 -8.6606682963507514e-02 -5.1385386889120553e-02 -1.9024448473891233e+00 6.2366355182938413e-02 1.3562188088695887e-01 -9.8334994232865715e-03 -1.2312752392402473e-01 -8.6300405037543604e-02 -1.4251908452419748e-02 -8.9409153527752784e-03 -5.2787033700655152e-04 -1.4364677186577413e-02 -3.7876757886585080e-02 -1.7263493468071149e-02 4.6728500352353730e-01 -4.6398759684504809e-01 
      </Row>
      <Row Index="29">
        1.1947058273023003e-02 -1.0939164265161949e-02 7.5304215215023368e-03 1.4579195788808622e-02 2.0936529646818566e-03 -1.3627679303594960e-03 -3.3989576629636531e-02 -5.7020938590897179e-04 2.7526734841494243e-03 4.0607674647010865e-03 -2.5065466298470618e-03 1.6779531226133038e-01 -4.9799814883594307e-05 -1.6789535214172702e-02 8.2712548757584159e-03 9.0029647230272271e-03 6.1355094869194205e-03 1.7159009589556094e-02 5.4327771961027782e-02 -1.1148618194802937e-03 -1.2366327709721903e-03 -2.2725023624587188e-02 1.0915879941970630e-03 7.6585578159030554e-02 3.0368819409796188e-02 1.2104747974925445e-01 1.1074295674735701e-02 7.5398425082332937e-02 6.1118306317337534e-03 2.2430546069554021e-02 5.6659705084068512e-01 -3.6532563393577200e-03 -2.1726486737507433e-02 7.1422629793118655e-02 1.7508590282869073e-02 -2.5315083260504601e-01 -6.6312536494592678e-03 -1.7263524082409276e-03 -9.4927728518712229e-05 8.8166864525982547e-03 -5.8963293811586936e-04 -4.6296896102052121e-04 -1.7346014881240990e-03 -2.0062167695122923e-05 3.9775300875069704e-03 1.9566350703143346e-03 5.3568748110155440e-04 1.5798934493432171e-02 -2.8033343847579884e-02 -4.5497938742755650e-04 -6.6410243447041079e-04 9.4729478641340410e-03 1.5547763933088099e-03 -2.6042257143082319e-04 -4.5457333326968760e-02 2.5354876509098290e-04 3.9259791536476671e-03 -1.5924447275264745e-03 1.0312543513002481e-03 -9.0071721660024195e-02 -1.7752132113909580e-03 -6.3435951056590056e-02 -6.2026052740138393e-03 -4.1427554155873014e-02 -4.7547265585805021e-03 -1.0366833533398017e-02 -2.4625398115110708e-01 3.5530005792254312e-03 8.5112660028968216e-03 -2.6899351585943698e-02 -3.0610309252802731e-03 4.9819286993045664e-01 -3.3911826052432953e-02 7.4999395030865834e-03 3.6667548461626759e-03 1.4218682790279158e-02 7.6417589544408582e-04 -1.8224560927234866e-02 6.6549816987313548e-03 3.3839388445733223e-04 6.4216235911283229e-04 1.1088993861267445e-02 2.0474830678365516e-04 1.9169002355761222e-01 -2.3054077143151552e-02 5.5621919445798085e-02 1.6185809719595698e-02 5.4168280389172402e-02 7.3506262352720508e-03 6.9400811383738339e-03 3.1127315888106999e-01 -1.4155434754664215e-03 -1.0446844867218013e-02 3.4500760298170383e-02 1.2434203572729133e-02 7.4834670766210809e-01 3.9282953275181307e-04 -3.9138047452247429e-03 5.9050901881983198e-03 -6.5706627409383572e-03 -3.4806069674385290e-04 2.3661098194479924e-02 -3.7714996396442349e-04 9.9867368984290703e-04 -4.5799109247111058e-03 1.4629168238779005e-02 4.0867224641920200e-03 -5.4485812509986753e-01 5.3982920183619021e-01 
      </Row>
      <Row Index="30">
        -2.0352907036191027e+01 1.3832358160852891e+00 7.7699116947583917e+00 1.9308526057494781e+00 -2.9431973920965060e-01 -3.3092086818222843e-02 -6.2806533474024036e+01 -6.9455349371373820e-01 3.1078613014471201e-01 -8.9835753214587166e-01 1.1558504513978392e+00 5.5323649364565910e+01 -4.2245550226744783e+01 1.4054335038235877e+00 3.5812157090049368e-01 -4.3500197087927139e-01 -2.3299262172035018e-01 2.4279896712528459e-01 1.4104684226796763e+01 2.9516687596432140e-01 5.9688995313401105e-02 -8.6711547962937185e-01 -1.5701335534558893e+00 -1.3558785299556348e+01 1.7538180099095229e+02 3.5009204883418306e+01 -1.5592903474825039e+01 2.0335517733100207e+01 9.0836076934291530e+00 5.6659705111626035e-01 2.1864079251268408e+03 -1.2318396238615495e+01 -5.1062292588872173e+00 -5.3818877908189311e+00 1.1742719824140103e+01 -2.2952262179592105e+02 -5.5355022087584075e+01 1.2483867212431505e+00 2.1269833733458654e-01 1.9476843260622445e+00 -1.2197721130869468e+00 2.6558267093662380e-02 1.4252114365354646e+02 1.1171683860106896e-01 7.9552671907850037e-02 6.2513423233056153e-01 -9.0352450296268216e-01 -6.4069597137626261e+01 1.2083430647566274e+01 3.9468233828665689e-01 -1.8406940315580620e+00 2.5064582113545937e+00 4.0877824237350069e-01 5.5519469877606149e-03 -1.3942097041636796e+02 4.8846111533350722e-02 1.5687112796646310e-01 -5.3379784983038947e-01 -3.4468420455596060e-02 -1.1455302477930672e+01 -1.2707296916734659e+02 -1.5581587820372079e+01 1.9753563719584029e+01 -9.2302312380341718e+00 -1.8755101671981329e+00 -3.2760647254841563e-01 -8.9540647090311563e+02 6.9048791094711754e+00 2.7268553519046197e+00 1.5593740816102504e+00 -6.7875624067939224e+00 2.3303605846597503e+02 -1.0913120480926324e+00 1.9320113460032644e+00 1.5047883383267305e+01 1.1190269520237770e+00 1.8015534749937956e-01 1.4260308332410039e+00 5.2007140966261304e+01 1.1174971268164241e-01 3.7397792087975312e-01 8.5401497919677816e-01 1.0985430261230533e-01 9.0615844705083873e+01 4.0534086502400726e+01 1.8878746309135749e+01 -4.8555779741600453e+00 1.0679041151370695e+01 5.9658060852787234e+00 1.8419022264921492e+00 1.1438080259478998e+03 -5.3356799399205741e+00 -1.4202069738281233e+00 -4.2483368342739505e+00 4.2603202466370931e+00 1.5206230029368351e+02 5.0349955737097121e+00 -2.3535715706672011e-02 2.6367699632990407e+00 -1.7663230960551672e+00 2.7803664207205053e-01 3.8974756239974795e-01 -1.7832929223017695e+00 6.3856866069095863e-01 -2.0596583643273902e-01 -4.7506127233146289e-01 -1.6538022872991998e+00 -1.9987460302458376e+02 1.9209487757752092e+02 
      </Row>
      <Row Index="31">
        -1.5769752392077407e-01 3.6278591576481389e-02 8.2502049376428355e-03 2.1752813784046178e-03 5.8344992044601276e-03 -8.1408453341370542e-04 2.7868897019848760e-01 1.9986318537781642e-02 -8.0126752568382559e-03 -2.1278026895941347e-03 -9.3745494379302574e-03 -3.4101978138485833e-01 -1.0625764902733159e-01 -2.0619030333250521e-02 -3.3353512781921779e-03 2.1037041357925973e-03 3.1446033024491449e-03 -1.9325181534847625e-03 4.8065469208498457e-01 3.8891123408046242e-03 6.2786650670401296e-03 -1.0203477440873736e-02 1.2773026060747483e-02 -3.4656734209261586e-01 -5.8857768820328715e-01 -2.6024328314599132e-01 1.5052749434197227e-01 -1.7798380628504312e-01 -5.4235038037870581e-02 -3.6532563379582023e-03 -1.2318396237749552e+01 1.7929450761747165e-01 8.0524161013874260e-02 9.2883264225321633e-03 -6.1972478169508988e-02 1.2232733900084565e+00 -2.0065967956168151e-01 2.4025046550377738e-02 -1.5010560278994944e-02 7.7184664966445382e-04 1.2001626623430184e-03 -4.2860965583735311e-04 -5.3785392120926190e-01 8.3914856686466699e-03 -6.9259667328015646e-03 -3.3975078197481801e-03 2.6152719401899560e-03 1.0590742659042007e-01 2.0457259343297096e-01 1.0375862374303324e-03 1.7452717005111251e-02 -2.8588323151391301e-02 -2.8463702787409062e-03 1.7475695444956876e-05 4.6371696396928663e-01 -7.1232454416467750e-03 -2.0898618146798081e-03 4.5707838849094393e-04 -1.2786021462218855e-04 5.8978061445486674e-02 -3.7778672218825693e-02 1.7272565690109332e-01 -1.3765369433697378e-01 6.3198658131205288e-02 2.3244951569650729e-02 2.6711389161042463e-03 6.4307163291700338e+00 -1.0045385673258793e-01 -3.0482294959894331e-02 -1.4039242591496056e-02 4.5827786000416565e-02 -1.1479818815087985e+00 1.5283523644733246e-01 1.1664254072553781e-02 3.1100446417505229e-02 -1.6529194809538864e-02 -4.3801048459446434e-04 -1.1357253948910113e-02 -2.3514979887592213e-01 -1.0481293136701420e-03 -3.8646857737403145e-04 -3.1715356619313002e-03 5.6303414302986410e-03 -3.3235446915523426e-01 -2.4337637502965442e-01 -1.4169905688243034e-01 1.3490086699360249e-02 -1.0288779107372609e-01 -2.1396856266666778e-02 -1.4749490832817007e-02 -4.9155978895775654e+00 8.9751706214130214e-02 4.5585426386751483e-02 -1.9208537077115083e-02 -1.8282484248568542e-02 -1.1278542060425618e+00 2.6079837814788183e-02 1.4324275442923574e-02 -3.4654797089553775e-03 1.1584179491422510e-02 -2.2956148767035438e-04 -2.1214164170708649e-03 7.5554197427536909e-03 -1.8477964985359460e-02 5.4430613221606583e-03 -9.4349969399394953e-03 6.8815700210710529e-03 8.5534234173399748e-01 -8.6345930838269547e-01 
      </Row>
      <Row Index="32">
        -2.2958147750313174e-01 2.1967092570475089e-01 3.9351709147124825e-02 9.1346675469655247e-02 -2.1444473207690041e-03 -1.7001199447772525e-03 1.7781251166468337e-01 -3.0591792346100384e-03 9.0286850031537497e-03 -2.3299044719842808e-02 -3.2497257223829124e-04 -3.3445571797162188e-01 1.4465683142359950e-02 -3.6691813792685934e-02 -2.6613160359559629e-02 4.8362036702744218e-03 -2.4297338771385818e-02 2.7476846457989770e-03 -4.0108214236050621e-01 2.3900652704671758e-03 -1.8277903433892032e-02 -2.3486277446762561e-02 9.2140183812094989e-03 -3.5516803087326565e-01 -2.6803532020419629e-01 -2.1198864200494683e-01 1.2261527366391139e-01 -2.7706331742679485e-01 -9.3584695181965355e-03 -2.1726486733833230e-02 -5.1062292570297707e+00 8.0524161011283610e-02 3.2292388745158851e-01 9.8475672198973616e-02 -5.2531787996577040e-02 1.8921629344839648e+00 -2.5732397672982188e-02 1.4225869780057110e-01 -3.7972225426599948e-02 5.5037396061898392e-02 -2.6059572931558250e-03 5.4830954977491686e-04 1.4040969925213176e-01 -1.4296579799122355e-04 9.0805813370355530e-03 -1.0069607074052599e-02 -1.0097451530093338e-03 -1.6446138865285320e-01 -1.0239696590906533e-01 8.3068075552318987e-02 2.2194738252512392e-02 6.9755626879805244e-02 1.3070861643340592e-03 -2.7852625081428804e-04 -1.3378987638150375e-01 2.0744011446058863e-03 9.1328025851710719e-03 -1.5107748929093615e-02 2.8621247722568910e-03 4.3097129114676136e-01 8.8826727065934197e-02 3.0926898606230679e-01 -8.0365933739985462e-02 8.5681184638332741e-02 5.8291365023536296e-03 1.2379497143335975e-02 3.3478854363414747e+00 -3.2818422215083541e-02 -1.5967484917660393e-01 -6.0577232625022570e-02 3.3017668874011363e-02 -1.8538382690365292e+00 2.0985096653585611e-01 9.2477739545193671e-02 1.6584678784646467e-01 -5.9908065550628664e-02 -1.4581011934944321e-03 -2.0459199691917080e-02 9.7757071089906056e-02 -1.0852285223573021e-03 -8.9198868003674825e-03 -1.2402881894056517e-03 9.7144805070143586e-03 -4.6389564825494745e-01 -1.6971197077247879e-01 -1.8265465521119495e-01 -6.4718714873038818e-02 -2.3731992066080035e-01 -2.6820606918993128e-02 -2.8561572510427798e-02 -2.1732361661947071e+00 4.5382235858466215e-02 1.4561929361939172e-01 -1.3738367599415831e-02 -1.9844863099245824e-02 -9.6814911746201204e-01 1.1775137359834653e-02 9.9333433683155517e-02 2.6264470868702237e-02 -5.0705875581881395e-02 2.9647475099922761e-03 3.1775539421656784e-03 5.3209028941254150e-05 4.4329819233865355e-03 -1.2442733537744832e-02 -1.8606641776336315e-02 -6.6132892079435318e-04 1.2203592143486808e+00 -1.1578492393888287e+00 
      </Row>
      <Row Index="33">
